{"learner":{"attributes":{"best_iteration":"412","best_score":"0.4417395252607435"},"feature_names":["Tipo de Cliente","SUPERCATEGORIA_DISPERSANTES","SUPERCATEGORIA_ENDURECEDORES / CURING AGENTS","SUPERCATEGORIA_LABORATORIO","SUPERCATEGORIA_MODIFICADORES REOLÓGICOS","SUPERCATEGORIA_OTROS","SUPERCATEGORIA_PIGMENTOS / EFECTOS","SUPERCATEGORIA_PLASTIFICANTES","SUPERCATEGORIA_PRESERVANTES","SUPERCATEGORIA_RESINAS / AGLUTINANTES","SUPERCATEGORIA_SOLVENTES","SKU","Codigo","Tipo_Cliente","CATEGORIA","Cantidad","P. Venta","C. Unit","Venta","Costo","MB","Margen_Porcentaje","Precio_por_Unidad","Rentabilidad","Ratio_MB_Venta","Ratio_Costo_Venta","Margen_Unitario","Costo_Unitario","Es_Rentable","Venta_Alta","Log_Venta","Sqrt_Cantidad","Interaccion_PVenta_Cantidad","Interaccion_MB_Cantidad"],"feature_types":["int","int","int","int","int","int","int","int","int","int","int","float","float","float","float","float","float","float","float","float","float","float","float","float","float","float","float","float","float","float","float","float","float","float"],"gradient_booster":{"model":{"gbtree_model_param":{"num_parallel_tree":"1","num_trees":"428"},"iteration_indptr":[0,1,2,3,4,5,6,7,8,9,10,11,12,13,14,15,16,17,18,19,20,21,22,23,24,25,26,27,28,29,30,31,32,33,34,35,36,37,38,39,40,41,42,43,44,45,46,47,48,49,50,51,52,53,54,55,56,57,58,59,60,61,62,63,64,65,66,67,68,69,70,71,72,73,74,75,76,77,78,79,80,81,82,83,84,85,86,87,88,89,90,91,92,93,94,95,96,97,98,99,100,101,102,103,104,105,106,107,108,109,110,111,112,113,114,115,116,117,118,119,120,121,122,123,124,125,126,127,128,129,130,131,132,133,134,135,136,137,138,139,140,141,142,143,144,145,146,147,148,149,150,151,152,153,154,155,156,157,158,159,160,161,162,163,164,165,166,167,168,169,170,171,172,173,174,175,176,177,178,179,180,181,182,183,184,185,186,187,188,189,190,191,192,193,194,195,196,197,198,199,200,201,202,203,204,205,206,207,208,209,210,211,212,213,214,215,216,217,218,219,220,221,222,223,224,225,226,227,228,229,230,231,232,233,234,235,236,237,238,239,240,241,242,243,244,245,246,247,248,249,250,251,252,253,254,255,256,257,258,259,260,261,262,263,264,265,266,267,268,269,270,271,272,273,274,275,276,277,278,279,280,281,282,283,284,285,286,287,288,289,290,291,292,293,294,295,296,297,298,299,300,301,302,303,304,305,306,307,308,309,310,311,312,313,314,315,316,317,318,319,320,321,322,323,324,325,326,327,328,329,330,331,332,333,334,335,336,337,338,339,340,341,342,343,344,345,346,347,348,349,350,351,352,353,354,355,356,357,358,359,360,361,362,363,364,365,366,367,368,369,370,371,372,373,374,375,376,377,378,379,380,381,382,383,384,385,386,387,388,389,390,391,392,393,394,395,396,397,398,399,400,401,402,403,404,405,406,407,408,409,410,411,412,413,414,415,416,417,418,419,420,421,422,423,424,425,426,427,428],"tree_info":[0,0,0,0,0,0,0,0,0,0,0,0,0,0,0,0,0,0,0,0,0,0,0,0,0,0,0,0,0,0,0,0,0,0,0,0,0,0,0,0,0,0,0,0,0,0,0,0,0,0,0,0,0,0,0,0,0,0,0,0,0,0,0,0,0,0,0,0,0,0,0,0,0,0,0,0,0,0,0,0,0,0,0,0,0,0,0,0,0,0,0,0,0,0,0,0,0,0,0,0,0,0,0,0,0,0,0,0,0,0,0,0,0,0,0,0,0,0,0,0,0,0,0,0,0,0,0,0,0,0,0,0,0,0,0,0,0,0,0,0,0,0,0,0,0,0,0,0,0,0,0,0,0,0,0,0,0,0,0,0,0,0,0,0,0,0,0,0,0,0,0,0,0,0,0,0,0,0,0,0,0,0,0,0,0,0,0,0,0,0,0,0,0,0,0,0,0,0,0,0,0,0,0,0,0,0,0,0,0,0,0,0,0,0,0,0,0,0,0,0,0,0,0,0,0,0,0,0,0,0,0,0,0,0,0,0,0,0,0,0,0,0,0,0,0,0,0,0,0,0,0,0,0,0,0,0,0,0,0,0,0,0,0,0,0,0,0,0,0,0,0,0,0,0,0,0,0,0,0,0,0,0,0,0,0,0,0,0,0,0,0,0,0,0,0,0,0,0,0,0,0,0,0,0,0,0,0,0,0,0,0,0,0,0,0,0,0,0,0,0,0,0,0,0,0,0,0,0,0,0,0,0,0,0,0,0,0,0,0,0,0,0,0,0,0,0,0,0,0,0,0,0,0,0,0,0,0,0,0,0,0,0,0,0,0,0,0,0,0,0,0,0,0,0,0,0,0,0,0,0,0,0,0,0,0,0,0,0,0,0,0,0,0,0,0,0,0,0,0,0,0,0,0,0,0,0,0,0,0,0,0,0,0,0,0,0,0,0,0,0,0,0,0,0,0,0,0,0],"trees":[{"base_weights":[-4.0762047E-3,-9.956398E-1,9.0015423E-1,-1.4551432E0,-5.8613217E-1,5.838402E-1,1.4459944E0,-2.8453266E-2,-7.5354554E-2,-3.985415E-2,-1.3322781E-2,1.5837472E-2,5.377655E-2,4.7976676E-2,8.733954E-2],"categories":[],"categories_nodes":[],"categories_segments":[],"categories_sizes":[],"default_left":[0,0,0,0,0,0,0,0,0,0,0,0,0,0,0],"id":0,"left_children":[1,3,5,7,9,11,13,-1,-1,-1,-1,-1,-1,-1,-1],"loss_changes":[1.6710542E3,1.6361633E2,1.6448956E2,1.5385925E1,3.0530151E1,7.952089E1,4.5875366E1,0E0,0E0,0E0,0E0,0E0,0E0,0E0,0E0],"parents":[2147483647,0,0,1,1,2,2,3,3,4,4,5,5,6,6],"right_children":[2,4,6,8,10,12,14,-1,-1,-1,-1,-1,-1,-1,-1],"split_conditions":[2.836164E-1,1.5180995E-1,1.7036975E-3,4.4807616E-1,1.6457186E-3,5.763438E-1,5.1800525E-1,-2.8453266E-2,-7.5354554E-2,-3.985415E-2,-1.3322781E-2,1.5837472E-2,5.377655E-2,4.7976676E-2,8.733954E-2],"split_indices":[12,12,22,30,22,12,12,0,0,0,0,0,0,0,0],"split_type":[0,0,0,0,0,0,0,0,0,0,0,0,0,0,0],"sum_hessian":[1.859658E3,8.874258E2,9.722322E2,4.1462808E2,4.727977E2,6.193124E2,3.5291983E2,2.5352253E1,3.8927582E2,2.8115308E2,1.916446E2,4.047635E2,2.1454889E2,1.393162E2,2.1360364E2],"tree_param":{"num_deleted":"0","num_feature":"34","num_nodes":"15","size_leaf_vector":"1"}},{"base_weights":[-0E0,-9.541025E-1,8.554435E-1,-7.619018E-2,-6.4204895E-1,2.9183382E-1,1.1815125E0,-4.0520683E-2,-8.70053E-3,4.2362493E-3,4.618589E-2,3.7966575E-2,7.164808E-2],"categories":[],"categories_nodes":[],"categories_segments":[],"categories_sizes":[],"default_left":[0,0,0,0,0,0,0,0,0,0,0,0,0],"id":1,"left_children":[1,3,5,-1,7,9,11,-1,-1,-1,-1,-1,-1],"loss_changes":[1.5329065E3,1.5368988E2,1.7986523E2,0E0,4.429094E1,4.6837288E1,6.2053345E1,0E0,0E0,0E0,0E0,0E0,0E0],"parents":[2147483647,0,0,1,1,2,2,4,4,5,5,6,6],"right_children":[2,4,6,-1,8,10,12,-1,-1,-1,-1,-1,-1],"split_conditions":[2.836164E-1,6.027767E-2,2.955283E-1,-7.619018E-2,2.5274727E-1,1.8600788E-3,4.5928028E-1,-4.0520683E-2,-8.70053E-3,4.2362493E-3,4.618589E-2,3.7966575E-2,7.164808E-2],"split_indices":[12,12,14,0,12,17,12,0,0,0,0,0,0],"split_type":[0,0,0,0,0,0,0,0,0,0,0,0,0],"sum_hessian":[1.8741885E3,8.856975E2,9.8849097E2,3.0956635E2,5.7613116E2,3.6479697E2,6.2369403E2,4.2106448E2,1.5506665E2,2.7764548E2,8.7151474E1,2.372948E2,3.8639923E2],"tree_param":{"num_deleted":"0","num_feature":"34","num_nodes":"13","size_leaf_vector":"1"}},{"base_weights":[-0E0,-8.970681E-1,8.006492E-1,-1.2352954E0,-3.2402885E-1,-9.086107E-2,1.4730326E0,-6.898436E-2,-3.1795796E-2,-6.5821454E-2,7.4526155E-3,-2.7881399E-2,1.3005552E-2,6.1320495E-2,8.912141E-2],"categories":[],"categories_nodes":[],"categories_segments":[],"categories_sizes":[],"default_left":[0,0,0,0,0,0,0,0,0,0,0,0,0,0,0],"id":2,"left_children":[1,3,5,7,9,11,13,-1,-1,-1,-1,-1,-1,-1,-1],"loss_changes":[1.3343923E3,1.6743921E2,5.901896E2,4.3751953E1,1.5600885E2,6.994507E1,3.5383667E1,0E0,0E0,0E0,0E0,0E0,0E0,0E0,0E0],"parents":[2147483647,0,0,1,1,2,2,3,3,4,4,5,5,6,6],"right_children":[2,4,6,8,10,12,14,-1,-1,-1,-1,-1,-1,-1,-1],"split_conditions":[2.8870168E-1,2.8695732E-1,3.003576E-1,2.4669315E-1,6.027767E-2,2.0304568E-1,5.36329E-1,-6.898436E-2,-3.1795796E-2,-6.5821454E-2,7.4526155E-3,-2.7881399E-2,1.3005552E-2,6.1320495E-2,8.912141E-2],"split_indices":[12,11,11,12,12,11,11,0,0,0,0,0,0,0,0],"split_type":[0,0,0,0,0,0,0,0,0,0,0,0,0,0,0],"sum_hessian":[1.8538983E3,8.740771E2,9.798213E2,5.4710223E2,3.2697485E2,4.2137045E2,5.584508E2,4.3744797E2,1.0965424E2,1.05084206E2,2.2189066E2,1.815689E2,2.3980156E2,3.1807202E2,2.4037881E2],"tree_param":{"num_deleted":"0","num_feature":"34","num_nodes":"15","size_leaf_vector":"1"}},{"base_weights":[-1.0582064E-2,-8.7060916E-1,7.6065814E-1,-1.0824251E0,-8.7367296E-2,-1.1908788E-1,1.406258E0,-7.267783E-2,-3.962052E-2,-6.710707E-2,8.890598E-3,-2.9668054E-2,1.23640625E-2,5.6934454E-2,8.19813E-2],"categories":[],"categories_nodes":[],"categories_segments":[],"categories_sizes":[],"default_left":[0,0,0,0,0,0,0,0,0,0,0,0,0,0,0],"id":3,"left_children":[1,3,5,7,9,11,13,-1,-1,-1,-1,-1,-1,-1,-1],"loss_changes":[1.236033E3,1.4489423E2,5.592348E2,7.001044E1,6.514037E1,7.304888E1,2.8895508E1,0E0,0E0,0E0,0E0,0E0,0E0,0E0,0E0],"parents":[2147483647,0,0,1,1,2,2,3,3,4,4,5,5,6,6],"right_children":[2,4,6,8,10,12,14,-1,-1,-1,-1,-1,-1,-1,-1],"split_conditions":[2.8870168E-1,3.246903E-1,3.003576E-1,1.178939E-1,4.7422282E-2,2.0304568E-1,4.6666488E-1,-7.267783E-2,-3.962052E-2,-6.710707E-2,8.890598E-3,-2.9668054E-2,1.23640625E-2,5.6934454E-2,8.19813E-2],"split_indices":[12,11,11,12,12,11,11,0,0,0,0,0,0,0,0],"split_type":[0,0,0,0,0,0,0,0,0,0,0,0,0,0,0],"sum_hessian":[1.8593323E3,8.795573E2,9.7977496E2,6.907214E2,1.8883592E2,4.147227E2,5.650523E2,2.979558E2,3.927656E2,3.2186153E1,1.5664977E2,1.8139417E2,2.3332852E2,2.7071124E2,2.9434103E2],"tree_param":{"num_deleted":"0","num_feature":"34","num_nodes":"15","size_leaf_vector":"1"}},{"base_weights":[-2.3629358E-2,-1.0272148E0,5.9029573E-1,-1.2014761E0,-3.142619E-1,-1.5992846E-1,1.2071564E0,-7.305434E-2,-4.930275E-2,-6.47805E-2,-7.321238E-4,-3.0025953E-2,8.1456425E-3,3.9575737E-2,6.964692E-2],"categories":[],"categories_nodes":[],"categories_segments":[],"categories_sizes":[],"default_left":[0,0,0,0,0,0,0,0,0,0,0,0,0,0,0],"id":4,"left_children":[1,3,5,7,9,11,13,-1,-1,-1,-1,-1,-1,-1,-1],"loss_changes":[1.1419825E3,8.5172E1,5.331665E2,2.619928E1,4.042658E1,7.452525E1,4.437433E1,0E0,0E0,0E0,0E0,0E0,0E0,0E0,0E0],"parents":[2147483647,0,0,1,1,2,2,3,3,4,4,5,5,6,6],"right_children":[2,4,6,8,10,12,14,-1,-1,-1,-1,-1,-1,-1,-1],"split_conditions":[2.5274727E-1,3.246903E-1,3.003576E-1,6.027767E-2,4.7422282E-2,2.0304568E-1,3.6923218E-1,-7.305434E-2,-4.930275E-2,-6.47805E-2,-7.321238E-4,-3.0025953E-2,8.1456425E-3,3.9575737E-2,6.964692E-2],"split_indices":[12,11,11,12,12,11,12,0,0,0,0,0,0,0,0],"split_type":[0,0,0,0,0,0,0,0,0,0,0,0,0,0,0],"sum_hessian":[1.8488103E3,7.0182196E2,1.1469883E3,5.617459E2,1.4007608E2,5.17485E2,6.2950336E2,2.4739523E2,3.1435068E2,3.0428202E1,1.0964788E2,2.194173E2,2.9806766E2,1.9936853E2,4.3013483E2],"tree_param":{"num_deleted":"0","num_feature":"34","num_nodes":"15","size_leaf_vector":"1"}},{"base_weights":[2.5253978E-3,-7.6373583E-1,6.703713E-1,-9.8645324E-1,-5.1245713E-1,1.9574697E-1,1.0623531E0,-3.2321904E-2,-5.68705E-2,-1.7701292E-2,-5.1310576E-2,2.9202739E-2,-3.7612703E-3,6.340153E-2,2.5730709E-2],"categories":[],"categories_nodes":[],"categories_segments":[],"categories_sizes":[],"default_left":[0,0,0,0,0,0,0,0,0,0,0,0,0,0,0],"id":5,"left_children":[1,3,5,7,9,11,13,-1,-1,-1,-1,-1,-1,-1,-1],"loss_changes":[9.460816E2,4.563742E1,1.8224823E2,1.9935944E1,3.1306892E1,4.8026512E1,5.772809E1,0E0,0E0,0E0,0E0,0E0,0E0,0E0,0E0],"parents":[2147483647,0,0,1,1,2,2,3,3,4,4,5,5,6,6],"right_children":[2,4,6,8,10,12,14,-1,-1,-1,-1,-1,-1,-1,-1],"split_conditions":[2.7970967E-1,2.0304568E-1,3.6658368E-1,4.9765557E-1,3.983052E-1,5.3942823E-1,1.2623297E-1,-3.2321904E-2,-5.68705E-2,-1.7701292E-2,-5.1310576E-2,2.9202739E-2,-3.7612703E-3,6.340153E-2,2.5730709E-2],"split_indices":[11,11,11,30,20,30,33,0,0,0,0,0,0,0,0],"split_type":[0,0,0,0,0,0,0,0,0,0,0,0,0,0,0],"sum_hessian":[1.8449199E3,8.583253E2,9.865946E2,4.4981067E2,4.0851462E2,4.487651E2,5.378295E2,1.4358612E2,3.0622458E2,3.162991E2,9.221552E1,1.8501509E2,2.6375E2,3.8776645E2,1.5006308E2],"tree_param":{"num_deleted":"0","num_feature":"34","num_nodes":"15","size_leaf_vector":"1"}},{"base_weights":[1.224661E-3,-9.6736E-1,5.7968575E-1,-6.8472825E-2,-6.7925304E-1,1.0672672E-1,8.9963317E-1,-4.40202E-2,-1.6761184E-2,-6.430838E-3,2.7326796E-2,3.491354E-2,5.9605747E-2],"categories":[],"categories_nodes":[],"categories_segments":[],"categories_sizes":[],"default_left":[0,0,0,0,0,0,0,0,0,0,0,0,0],"id":6,"left_children":[1,3,5,-1,7,9,11,-1,-1,-1,-1,-1,-1],"loss_changes":[1.026396E3,7.539813E1,1.725206E2,0E0,2.616838E1,4.887169E1,3.6684265E1,0E0,0E0,0E0,0E0,0E0,0E0],"parents":[2147483647,0,0,1,1,2,2,4,4,5,5,6,6],"right_children":[2,4,6,-1,8,10,12,-1,-1,-1,-1,-1,-1],"split_conditions":[2.5274727E-1,6.027767E-2,3.828987E-1,-6.8472825E-2,1.9404218E-3,6.842305E-2,1.7036974E-3,-4.40202E-2,-1.6761184E-2,-6.430838E-3,2.7326796E-2,3.491354E-2,5.9605747E-2],"split_indices":[12,12,12,0,17,26,16,0,0,0,0,0,0],"split_type":[0,0,0,0,0,0,0,0,0,0,0,0,0],"sum_hessian":[1.8285963E3,6.825874E2,1.1460089E3,2.8034558E2,4.0224182E2,4.6476602E2,6.8124286E2,2.5002782E2,1.52214E2,3.0219943E2,1.625666E2,4.095069E2,2.7173593E2],"tree_param":{"num_deleted":"0","num_feature":"34","num_nodes":"13","size_leaf_vector":"1"}},{"base_weights":[-3.4454698E-3,-6.2236863E-1,7.1634156E-1,-1.1140738E0,-4.4954532E-1,1.032757E0,3.1955606E-1,-5.8517415E-2,-2.6428094E-2,-3.895868E-2,-9.156985E-3,3.578565E-2,6.1475124E-2,-5.6784857E-2,2.1572892E-2],"categories":[],"categories_nodes":[],"categories_segments":[],"categories_sizes":[],"default_left":[0,0,0,0,0,0,0,0,0,0,0,0,0,0,0],"id":7,"left_children":[1,3,5,7,9,11,13,-1,-1,-1,-1,-1,-1,-1,-1],"loss_changes":[8.151827E2,8.111359E1,1.0411972E2,5.4078674E0,6.3162354E1,2.5487518E1,6.2049473E1,0E0,0E0,0E0,0E0,0E0,0E0,0E0,0E0],"parents":[2147483647,0,0,1,1,2,2,3,3,4,4,5,5,6,6],"right_children":[2,4,6,8,10,12,14,-1,-1,-1,-1,-1,-1,-1,-1],"split_conditions":[3.003576E-1,2.7512002E-1,5.40447E-1,2.7290577E-1,2.0304568E-1,9.282287E-4,1.1545621E-1,-5.8517415E-2,-2.6428094E-2,-3.895868E-2,-9.156985E-3,3.578565E-2,6.1475124E-2,-5.6784857E-2,2.1572892E-2],"split_indices":[11,13,30,11,11,16,13,0,0,0,0,0,0,0,0],"split_type":[0,0,0,0,0,0,0,0,0,0,0,0,0,0,0],"sum_hessian":[1.8260542E3,9.827108E2,8.433434E2,2.5123502E2,7.3147577E2,4.6600397E2,3.7733942E2,2.2582497E2,2.5410046E1,3.235449E2,4.0793088E2,1.8394508E2,2.8205887E2,2.4999035E1,3.5234036E2],"tree_param":{"num_deleted":"0","num_feature":"34","num_nodes":"15","size_leaf_vector":"1"}},{"base_weights":[-1.0016093E-2,-7.703533E-1,6.4349204E-1,-1.2450792E0,-4.4976914E-1,-5.329235E-2,1.1389403E0,-3.6055584E-2,-6.669938E-2,-4.0676933E-2,1.3749162E-2,-4.5678917E-2,3.0435862E-3,4.459486E-2,6.748928E-2],"categories":[],"categories_nodes":[],"categories_segments":[],"categories_sizes":[],"default_left":[0,0,0,0,0,0,0,0,0,0,0,0,0,0,0],"id":8,"left_children":[1,3,5,7,9,11,13,-1,-1,-1,-1,-1,-1,-1,-1],"loss_changes":[9.078286E2,1.2579599E2,3.4011484E2,1.1778564E1,1.3513168E2,4.11369E1,2.5284302E1,0E0,0E0,0E0,0E0,0E0,0E0,0E0,0E0],"parents":[2147483647,0,0,1,1,2,2,3,3,4,4,5,5,6,6],"right_children":[2,4,6,8,10,12,14,-1,-1,-1,-1,-1,-1,-1,-1],"split_conditions":[2.9790884E-1,1.178939E-1,3.003576E-1,4.369149E-2,3.003576E-1,1.0917466E-1,4.6666488E-1,-3.6055584E-2,-6.669938E-2,-4.0676933E-2,1.3749162E-2,-4.5678917E-2,3.0435862E-3,4.459486E-2,6.748928E-2],"split_indices":[12,12,11,31,11,11,11,0,0,0,0,0,0,0,0],"split_type":[0,0,0,0,0,0,0,0,0,0,0,0,0,0,0],"sum_hessian":[1.8227833E3,8.430696E2,9.7971375E2,3.3625348E2,5.068161E2,4.0703616E2,5.726776E2,5.305445E1,2.8319904E2,3.3820047E2,1.6861565E2,4.707278E1,3.5996338E2,2.7070325E2,3.0197433E2],"tree_param":{"num_deleted":"0","num_feature":"34","num_nodes":"15","size_leaf_vector":"1"}},{"base_weights":[-1.296852E-2,-7.3156756E-1,6.0827404E-1,-1.2887094E0,-4.7325164E-1,2.3381941E-1,8.557794E-1,-4.6068266E-2,-6.728694E-2,-4.0888127E-2,-1.606088E-2,-3.4323353E-3,2.3447573E-2,4.984707E-2,1.8101184E-2],"categories":[],"categories_nodes":[],"categories_segments":[],"categories_sizes":[],"default_left":[0,0,0,0,0,0,0,0,0,0,0,0,0,0,0],"id":9,"left_children":[1,3,5,7,9,11,13,-1,-1,-1,-1,-1,-1,-1,-1],"loss_changes":[8.057181E2,1.175419E2,8.8141754E1,7.6049805E-1,2.8533829E1,2.814557E1,3.8337708E1,0E0,0E0,0E0,0E0,0E0,0E0,0E0,0E0],"parents":[2147483647,0,0,1,1,2,2,3,3,4,4,5,5,6,6],"right_children":[2,4,6,8,10,12,14,-1,-1,-1,-1,-1,-1,-1,-1],"split_conditions":[3.0267304E-1,6.027767E-2,3.3164743E-1,2.6350876E-3,2.7512002E-1,4.0029937E-1,8.652372E-2,-4.6068266E-2,-6.728694E-2,-4.0888127E-2,-1.606088E-2,-3.4323353E-3,2.3447573E-2,4.984707E-2,1.8101184E-2],"split_indices":[12,12,14,19,13,12,31,0,0,0,0,0,0,0,0],"split_type":[0,0,0,0,0,0,0,0,0,0,0,0,0,0,0],"sum_hessian":[1.8005557E3,8.3544293E2,9.651128E2,2.6089325E2,5.745497E2,3.8721658E2,5.778962E2,4.2027534E1,2.1886572E2,1.7122247E2,4.0332718E2,1.6811813E2,2.1909845E2,4.462518E2,1.316444E2],"tree_param":{"num_deleted":"0","num_feature":"34","num_nodes":"15","size_leaf_vector":"1"}},{"base_weights":[-3.749258E-3,-8.6091363E-1,4.8503834E-1,-1.1019363E0,-4.3235683E-1,-1.2015881E-1,9.696439E-1,-6.464641E-2,-4.612211E-2,-6.301193E-2,-4.6620118E-3,-2.5025208E-2,7.1660103E-3,3.1616595E-2,5.627637E-2],"categories":[],"categories_nodes":[],"categories_segments":[],"categories_sizes":[],"default_left":[0,0,0,0,0,0,0,0,0,0,0,0,0,0,0],"id":10,"left_children":[1,3,5,7,9,11,13,-1,-1,-1,-1,-1,-1,-1,-1],"loss_changes":[7.487128E2,6.458853E1,3.3447263E2,9.552368E0,6.538022E1,5.1243156E1,3.0071716E1,0E0,0E0,0E0,0E0,0E0,0E0,0E0,0E0],"parents":[2147483647,0,0,1,1,2,2,3,3,4,4,5,5,6,6],"right_children":[2,4,6,8,10,12,14,-1,-1,-1,-1,-1,-1,-1,-1],"split_conditions":[2.5274727E-1,2.9599446E-1,3.003576E-1,1.10481E-1,5.111795E-2,1.9458662E-1,3.6923218E-1,-6.464641E-2,-4.612211E-2,-6.301193E-2,-4.6620118E-3,-2.5025208E-2,7.1660103E-3,3.1616595E-2,5.627637E-2],"split_indices":[12,11,11,12,12,11,12,0,0,0,0,0,0,0,0],"split_type":[0,0,0,0,0,0,0,0,0,0,0,0,0,0,0],"sum_hessian":[1.782136E3,6.473795E2,1.1347565E3,4.108431E2,2.3653639E2,5.043465E2,6.3041E2,1.903367E2,2.2050641E2,6.629931E1,1.7023708E2,2.0721594E2,2.9713058E2,2.0447655E2,4.2593344E2],"tree_param":{"num_deleted":"0","num_feature":"34","num_nodes":"15","size_leaf_vector":"1"}},{"base_weights":[-1.9728115E-3,-8.32555E-1,4.5432624E-1,-1.2282244E0,-5.788546E-1,8.611096E-2,7.529432E-1,-3.9709E-2,-6.4920515E-2,-4.9251817E-2,-2.0241724E-2,-6.417729E-3,2.2842145E-2,-2.0365526E-3,4.363636E-2],"categories":[],"categories_nodes":[],"categories_segments":[],"categories_sizes":[],"default_left":[0,0,0,0,0,0,0,0,0,0,0,0,0,0,0],"id":11,"left_children":[1,3,5,7,9,11,13,-1,-1,-1,-1,-1,-1,-1,-1],"loss_changes":[6.7060846E2,5.979315E1,1.244489E2,3.2161255E0,2.5228394E1,4.1356865E1,6.0614166E1,0E0,0E0,0E0,0E0,0E0,0E0,0E0,0E0],"parents":[2147483647,0,0,1,1,2,2,3,3,4,4,5,5,6,6],"right_children":[2,4,6,8,10,12,14,-1,-1,-1,-1,-1,-1,-1,-1],"split_conditions":[2.5274727E-1,6.027767E-2,4.0029937E-1,2.6350876E-3,2.7512002E-1,6.842305E-2,2.0287122E-1,-3.9709E-2,-6.4920515E-2,-4.9251817E-2,-2.0241724E-2,-6.417729E-3,2.2842145E-2,-2.0365526E-3,4.363636E-2],"split_indices":[12,12,12,19,13,26,14,0,0,0,0,0,0,0,0],"split_type":[0,0,0,0,0,0,0,0,0,0,0,0,0,0,0],"sum_hessian":[1.76445E3,6.258265E2,1.1386235E3,2.3996094E2,3.8586554E2,5.1254535E2,6.260782E2,3.881286E1,2.0114807E2,1.112136E2,2.7465192E2,3.238252E2,1.8872015E2,8.117746E1,5.449007E2],"tree_param":{"num_deleted":"0","num_feature":"34","num_nodes":"15","size_leaf_vector":"1"}},{"base_weights":[-1.2627352E-2,-6.268213E-1,5.1257515E-1,-1.0360904E0,-4.7696304E-1,1.3178748E-1,8.1687635E-1,-2.4171753E-2,-5.3186066E-2,-4.865192E-2,-1.6280022E-2,2.4230065E-2,-5.247492E-3,4.507706E-2,8.436999E-3],"categories":[],"categories_nodes":[],"categories_segments":[],"categories_sizes":[],"default_left":[0,0,0,0,0,0,0,0,0,0,0,0,0,0,0],"id":12,"left_children":[1,3,5,7,9,11,13,-1,-1,-1,-1,-1,-1,-1,-1],"loss_changes":[5.7093933E2,4.7579193E1,1.09269394E2,7.129364E-1,4.3359436E1,3.6160072E1,2.759253E1,0E0,0E0,0E0,0E0,0E0,0E0,0E0,0E0],"parents":[2147483647,0,0,1,1,2,2,3,3,4,4,5,5,6,6],"right_children":[2,4,6,8,10,12,14,-1,-1,-1,-1,-1,-1,-1,-1],"split_conditions":[2.840434E-1,2.7512002E-1,3.6658368E-1,3.6064713E-4,1.2876156E-1,5.3942823E-1,1.0998667E-1,-2.4171753E-2,-5.3186066E-2,-4.865192E-2,-1.6280022E-2,2.4230065E-2,-5.247492E-3,4.507706E-2,8.436999E-3],"split_indices":[11,13,11,19,11,30,31,0,0,0,0,0,0,0,0],"split_type":[0,0,0,0,0,0,0,0,0,0,0,0,0,0,0],"sum_hessian":[1.7655902E3,8.1454456E2,9.5104565E2,2.1335698E2,6.011876E2,4.2516605E2,5.2587964E2,1.3643893E1,1.9971309E2,1.3646709E2,4.647205E2,1.7158296E2,2.5358307E2,4.6306543E2,6.2814224E1],"tree_param":{"num_deleted":"0","num_feature":"34","num_nodes":"15","size_leaf_vector":"1"}},{"base_weights":[-6.687845E-4,-7.753582E-1,4.2377317E-1,-1.1864184E0,-5.175666E-1,8.794272E-2,6.9601196E-1,-4.125023E-2,-6.218444E-2,-4.7726464E-2,-1.8230183E-2,-5.933597E-3,2.1700067E-2,-3.7374482E-3,4.076546E-2],"categories":[],"categories_nodes":[],"categories_segments":[],"categories_sizes":[],"default_left":[0,0,0,0,0,0,0,0,0,0,0,0,0,0,0],"id":13,"left_children":[1,3,5,7,9,11,13,-1,-1,-1,-1,-1,-1,-1,-1],"loss_changes":[5.771776E2,6.2956085E1,1.0263431E2,7.7645874E-1,2.3862938E1,3.6953003E1,5.8196503E1,0E0,0E0,0E0,0E0,0E0,0E0,0E0,0E0],"parents":[2147483647,0,0,1,1,2,2,3,3,4,4,5,5,6,6],"right_children":[2,4,6,8,10,12,14,-1,-1,-1,-1,-1,-1,-1,-1],"split_conditions":[2.5274727E-1,6.027767E-2,4.0029937E-1,2.6350876E-3,2.057821E-1,6.842305E-2,2.0287122E-1,-4.125023E-2,-6.218444E-2,-4.7726464E-2,-1.8230183E-2,-5.933597E-3,2.1700067E-2,-3.7374482E-3,4.076546E-2],"split_indices":[12,12,12,19,14,26,14,0,0,0,0,0,0,0,0],"split_type":[0,0,0,0,0,0,0,0,0,0,0,0,0,0,0],"sum_hessian":[1.7502816E3,6.1977454E2,1.1305071E3,2.3460414E2,3.8517038E2,5.0896878E2,6.2153827E2,3.8693623E1,1.9591052E2,9.5458954E1,2.8971143E2,3.1770633E2,1.9126245E2,8.2283226E1,5.3925507E2],"tree_param":{"num_deleted":"0","num_feature":"34","num_nodes":"15","size_leaf_vector":"1"}},{"base_weights":[-1.3860394E-2,-5.248331E-1,5.5030197E-1,-8.075874E-1,-2.946269E-1,8.08902E-1,2.2221461E-1,-3.0032737E-2,-5.2405935E-2,-3.8907442E-2,-7.7243224E-3,2.0364882E-2,4.6278354E-2,-4.770728E-2,1.5434332E-2],"categories":[],"categories_nodes":[],"categories_segments":[],"categories_sizes":[],"default_left":[0,0,0,0,0,0,0,0,0,0,0,0,0,0,0],"id":14,"left_children":[1,3,5,7,9,11,13,-1,-1,-1,-1,-1,-1,-1,-1],"loss_changes":[5.038494E2,5.818257E1,6.901378E1,1.7445892E1,3.3464497E1,1.9540009E1,3.7604042E1,0E0,0E0,0E0,0E0,0E0,0E0,0E0,0E0],"parents":[2147483647,0,0,1,1,2,2,3,3,4,4,5,5,6,6],"right_children":[2,4,6,8,10,12,14,-1,-1,-1,-1,-1,-1,-1,-1],"split_conditions":[3.003576E-1,2.0304568E-1,4.230069E-3,7.6024555E-2,2.7512002E-1,4.485448E-4,1.1545621E-1,-3.0032737E-2,-5.2405935E-2,-3.8907442E-2,-7.7243224E-3,2.0364882E-2,4.6278354E-2,-4.770728E-2,1.5434332E-2],"split_indices":[11,11,18,31,13,22,13,0,0,0,0,0,0,0,0],"split_type":[0,0,0,0,0,0,0,0,0,0,0,0,0,0,0],"sum_hessian":[1.7439136E3,9.16098E2,8.2781555E2,4.069254E2,5.091726E2,4.5958752E2,3.6822806E2,2.2473466E2,1.8219077E2,1.10764496E2,3.9840808E2,1.074069E2,3.521806E2,2.304826E1,3.451798E2],"tree_param":{"num_deleted":"0","num_feature":"34","num_nodes":"15","size_leaf_vector":"1"}},{"base_weights":[-9.841712E-3,-6.460372E-1,4.8648864E-1,-1.1091057E0,-3.8187537E-1,-1.0035529E-1,5.873541E-1,-3.349052E-2,-6.0087472E-2,-4.203868E-2,-1.2802631E-2,-1.5976729E-2,4.031868E-2,1.1957315E-2,3.8505122E-2],"categories":[],"categories_nodes":[],"categories_segments":[],"categories_sizes":[],"default_left":[0,0,0,0,0,0,0,0,0,0,0,0,0,0,0],"id":15,"left_children":[1,3,5,7,9,11,13,-1,-1,-1,-1,-1,-1,-1,-1],"loss_changes":[5.446965E2,9.021768E1,5.7896072E1,7.605438E0,2.654683E1,2.8291185E1,5.129068E1,0E0,0E0,0E0,0E0,0E0,0E0,0E0,0E0],"parents":[2147483647,0,0,1,1,2,2,3,3,4,4,5,5,6,6],"right_children":[2,4,6,8,10,12,14,-1,-1,-1,-1,-1,-1,-1,-1],"split_conditions":[2.8870168E-1,1.10481E-1,2.0287122E-1,2.6350876E-3,2.0287122E-1,1.7036974E-3,4.0029937E-1,-3.349052E-2,-6.0087472E-2,-4.203868E-2,-1.2802631E-2,-1.5976729E-2,4.031868E-2,1.1957315E-2,3.8505122E-2],"split_indices":[12,12,14,19,14,16,12,0,0,0,0,0,0,0,0],"split_type":[0,0,0,0,0,0,0,0,0,0,0,0,0,0,0],"sum_hessian":[1.72052E3,7.546379E2,9.6588214E2,2.7041864E2,4.8421927E2,1.4021214E2,8.2567004E2,5.1843365E1,2.1857529E2,1.0004071E2,3.8417856E2,1.1484843E2,2.5363708E1,2.876576E2,5.3801245E2],"tree_param":{"num_deleted":"0","num_feature":"34","num_nodes":"15","size_leaf_vector":"1"}},{"base_weights":[-8.64105E-3,-7.5305676E-1,3.847403E-1,-9.2167515E-1,-1.5584244E-1,-1.2827761E-1,8.0909985E-1,-5.8205772E-2,-3.458145E-2,-5.491894E-2,4.732314E-3,-2.3252929E-2,4.91187E-3,2.4225568E-2,4.7858916E-2],"categories":[],"categories_nodes":[],"categories_segments":[],"categories_sizes":[],"default_left":[0,0,0,0,0,0,0,0,0,0,0,0,0,0,0],"id":16,"left_children":[1,3,5,7,9,11,13,-1,-1,-1,-1,-1,-1,-1,-1],"loss_changes":[5.0191104E2,5.835266E1,2.4465067E2,2.2230316E1,3.291465E1,3.9177593E1,2.7149109E1,0E0,0E0,0E0,0E0,0E0,0E0,0E0,0E0],"parents":[2147483647,0,0,1,1,2,2,3,3,4,4,5,5,6,6],"right_children":[2,4,6,8,10,12,14,-1,-1,-1,-1,-1,-1,-1,-1],"split_conditions":[2.5274727E-1,3.246903E-1,3.003576E-1,1.10481E-1,4.7422282E-2,1.9458662E-1,3.6923218E-1,-5.8205772E-2,-3.458145E-2,-5.491894E-2,4.732314E-3,-2.3252929E-2,4.91187E-3,2.4225568E-2,4.7858916E-2],"split_indices":[12,11,11,12,12,11,12,0,0,0,0,0,0,0,0],"split_type":[0,0,0,0,0,0,0,0,0,0,0,0,0,0,0],"sum_hessian":[1.7087109E3,5.910155E2,1.1176956E3,4.5873462E2,1.3228087E2,5.0555612E2,6.1213934E2,2.1728036E2,2.4145424E2,2.7190615E1,1.05090256E2,2.0422473E2,3.013314E2,1.9656514E2,4.1557422E2],"tree_param":{"num_deleted":"0","num_feature":"34","num_nodes":"15","size_leaf_vector":"1"}},{"base_weights":[-1.800635E-3,-7.426031E-1,3.815265E-1,-1.125006E0,-5.049711E-1,8.0851346E-2,6.2816375E-1,-3.855536E-2,-5.9096504E-2,-3.531904E-2,-9.159058E-3,-2.0660967E-2,1.0229871E-2,-4.4964856E-4,3.6183678E-2],"categories":[],"categories_nodes":[],"categories_segments":[],"categories_sizes":[],"default_left":[0,0,0,0,0,0,0,0,0,0,0,0,0,0,0],"id":17,"left_children":[1,3,5,7,9,11,13,-1,-1,-1,-1,-1,-1,-1,-1],"loss_changes":[4.806685E2,4.9725983E1,8.178276E1,6.1883545E-1,2.2281487E1,3.089799E1,3.7832993E1,0E0,0E0,0E0,0E0,0E0,0E0,0E0,0E0],"parents":[2147483647,0,0,1,1,2,2,3,3,4,4,5,5,6,6],"right_children":[2,4,6,8,10,12,14,-1,-1,-1,-1,-1,-1,-1,-1],"split_conditions":[2.5274727E-1,6.027767E-2,4.0029937E-1,2.6350876E-3,1.9404218E-3,6.733315E-2,2.0287122E-1,-3.855536E-2,-5.9096504E-2,-3.531904E-2,-9.159058E-3,-2.0660967E-2,1.0229871E-2,-4.4964856E-4,3.6183678E-2],"split_indices":[12,12,12,19,17,26,14,0,0,0,0,0,0,0,0],"split_type":[0,0,0,0,0,0,0,0,0,0,0,0,0,0,0],"sum_hessian":[1.6874081E3,5.756549E2,1.1117532E3,2.1614803E2,3.595069E2,5.0401694E2,6.0773627E2,3.6414974E1,1.7973306E2,2.177305E2,1.417764E2,9.839677E1,4.0562018E2,7.809528E1,5.29641E2],"tree_param":{"num_deleted":"0","num_feature":"34","num_nodes":"15","size_leaf_vector":"1"}},{"base_weights":[1.41298035E-2,-6.934488E-1,3.8130495E-1,-9.439679E-1,-2.9056028E-1,-1.2296306E-1,8.004125E-1,-1.48745E-2,-4.972878E-2,-5.3948153E-2,-0E0,-2.2302663E-2,4.7908244E-3,2.6227672E-2,4.654294E-2],"categories":[],"categories_nodes":[],"categories_segments":[],"categories_sizes":[],"default_left":[0,0,0,0,0,0,0,0,0,0,0,0,0,0,0],"id":18,"left_children":[1,3,5,7,9,11,13,-1,-1,-1,-1,-1,-1,-1,-1],"loss_changes":[4.4218655E2,5.6853607E1,2.380431E2,9.756683E0,5.103779E1,3.6485508E1,1.966983E1,0E0,0E0,0E0,0E0,0E0,0E0,0E0,0E0],"parents":[2147483647,0,0,1,1,2,2,3,3,4,4,5,5,6,6],"right_children":[2,4,6,8,10,12,14,-1,-1,-1,-1,-1,-1,-1,-1],"split_conditions":[2.5274727E-1,2.9313958E-1,3.003576E-1,4.2994142E-1,5.111795E-2,2.0304568E-1,3.6923218E-1,-1.48745E-2,-4.972878E-2,-5.3948153E-2,-0E0,-2.2302663E-2,4.7908244E-3,2.6227672E-2,4.654294E-2],"split_indices":[12,11,11,30,12,11,12,0,0,0,0,0,0,0,0],"split_type":[0,0,0,0,0,0,0,0,0,0,0,0,0,0,0],"sum_hessian":[1.6991582E3,5.789569E2,1.1202013E3,3.537959E2,2.25161E2,5.080025E2,6.121988E2,2.8118488E1,3.256774E2,5.8314598E1,1.668464E2,2.0611229E2,3.018902E2,2.0223474E2,4.0996405E2],"tree_param":{"num_deleted":"0","num_feature":"34","num_nodes":"15","size_leaf_vector":"1"}},{"base_weights":[-1.0392941E-2,-6.894725E-1,3.3167863E-1,-9.125245E-1,-2.6236933E-1,-1.3317344E-1,7.2109324E-1,-5.648985E-2,-3.759942E-2,-5.4704417E-2,2.7970036E-3,-2.2643747E-2,4.388748E-3,2.2673465E-2,4.2427555E-2],"categories":[],"categories_nodes":[],"categories_segments":[],"categories_sizes":[],"default_left":[0,0,0,0,0,0,0,0,0,0,0,0,0,0,0],"id":19,"left_children":[1,3,5,7,9,11,13,-1,-1,-1,-1,-1,-1,-1,-1],"loss_changes":[3.8813425E2,5.1711914E1,2.0156631E2,9.172821E0,5.318987E1,3.6197052E1,1.856726E1,0E0,0E0,0E0,0E0,0E0,0E0,0E0,0E0],"parents":[2147483647,0,0,1,1,2,2,3,3,4,4,5,5,6,6],"right_children":[2,4,6,8,10,12,14,-1,-1,-1,-1,-1,-1,-1,-1],"split_conditions":[2.5274727E-1,3.003576E-1,3.003576E-1,9.947112E-2,5.111795E-2,2.0304568E-1,3.6923218E-1,-5.648985E-2,-3.759942E-2,-5.4704417E-2,2.7970036E-3,-2.2643747E-2,4.388748E-3,2.2673465E-2,4.2427555E-2],"split_indices":[12,11,11,12,12,11,12,0,0,0,0,0,0,0,0],"split_type":[0,0,0,0,0,0,0,0,0,0,0,0,0,0,0],"sum_hessian":[1.6653672E3,5.5817395E2,1.1071932E3,3.6364706E2,1.9452692E2,5.041396E2,6.030536E2,1.467409E2,2.1690616E2,5.3362324E1,1.4116458E2,2.0701933E2,2.9712024E2,2.0002386E2,4.0302972E2],"tree_param":{"num_deleted":"0","num_feature":"34","num_nodes":"15","size_leaf_vector":"1"}},{"base_weights":[9.968496E-3,-6.658305E-1,3.278946E-1,-9.186323E-1,-2.8408596E-1,-1.2007728E-1,7.1632224E-1,-7.4367397E-3,-4.80096E-2,-4.0166993E-2,7.946065E-3,-3.7666973E-2,-1.3827144E-3,2.211995E-2,4.2760666E-2],"categories":[],"categories_nodes":[],"categories_segments":[],"categories_sizes":[],"default_left":[0,0,0,0,0,0,0,0,0,0,0,0,0,0,0],"id":20,"left_children":[1,3,5,7,9,11,13,-1,-1,-1,-1,-1,-1,-1,-1],"loss_changes":[3.5441638E2,4.9158844E1,1.9632327E2,8.67572E0,5.024879E1,2.9754574E1,2.0902802E1,0E0,0E0,0E0,0E0,0E0,0E0,0E0,0E0],"parents":[2147483647,0,0,1,1,2,2,3,3,4,4,5,5,6,6],"right_children":[2,4,6,8,10,12,14,-1,-1,-1,-1,-1,-1,-1,-1],"split_conditions":[2.4669315E-1,2.9313958E-1,3.003576E-1,4.1121632E-1,1.10481E-1,1.0917466E-1,3.6923218E-1,-7.4367397E-3,-4.80096E-2,-4.0166993E-2,7.946065E-3,-3.7666973E-2,-1.3827144E-3,2.211995E-2,4.2760666E-2],"split_indices":[12,11,11,30,12,11,12,0,0,0,0,0,0,0,0],"split_type":[0,0,0,0,0,0,0,0,0,0,0,0,0,0,0],"sum_hessian":[1.647108E3,5.252588E2,1.1218492E3,3.1272876E2,2.1253001E2,5.2043787E2,6.0141144E2,1.7718105E1,2.9501065E2,9.8135185E1,1.1439484E2,6.308327E1,4.5735458E2,2.0758311E2,3.938283E2],"tree_param":{"num_deleted":"0","num_feature":"34","num_nodes":"15","size_leaf_vector":"1"}},{"base_weights":[6.328873E-3,-6.459733E-1,3.342911E-1,-1.0584555E0,-4.0717036E-1,-7.655083E-2,6.803943E-1,-2.8931215E-2,-5.7252597E-2,-3.5197105E-2,7.5269826E-3,-1.854633E-2,5.913332E-3,2.0125994E-2,4.069833E-2],"categories":[],"categories_nodes":[],"categories_segments":[],"categories_sizes":[],"default_left":[0,0,0,0,0,0,0,0,0,0,0,0,0,0,0],"id":21,"left_children":[1,3,5,7,9,11,13,-1,-1,-1,-1,-1,-1,-1,-1],"loss_changes":[3.5006265E2,5.154666E1,1.558187E2,5.168289E0,5.8889996E1,2.8972109E1,2.0160217E1,0E0,0E0,0E0,0E0,0E0,0E0,0E0,0E0],"parents":[2147483647,0,0,1,1,2,2,3,3,4,4,5,5,6,6],"right_children":[2,4,6,8,10,12,14,-1,-1,-1,-1,-1,-1,-1,-1],"split_conditions":[2.5274727E-1,6.027767E-2,3.003576E-1,2.6350876E-3,3.003576E-1,2.0181213E-1,3.6923218E-1,-2.8931215E-2,-5.7252597E-2,-3.5197105E-2,7.5269826E-3,-1.854633E-2,5.913332E-3,2.0125994E-2,4.069833E-2],"split_indices":[12,12,11,19,11,11,12,0,0,0,0,0,0,0,0],"split_type":[0,0,0,0,0,0,0,0,0,0,0,0,0,0,0],"sum_hessian":[1.6337764E3,5.4493555E2,1.0888408E3,1.9575592E2,3.4917963E2,4.9724927E2,5.915916E2,3.4041794E1,1.6171413E2,2.2873338E2,1.2044625E2,1.9934991E2,2.9789935E2,1.9709096E2,3.9450064E2],"tree_param":{"num_deleted":"0","num_feature":"34","num_nodes":"15","size_leaf_vector":"1"}},{"base_weights":[5.643495E-3,-6.046927E-1,2.9900184E-1,-1.0320885E0,-3.6890265E-1,-1.1059789E-1,6.5487635E-1,-2.8985772E-2,-5.5401307E-2,-3.305935E-2,8.54301E-3,-1.8802082E-2,8.815648E-3,2.078872E-2,3.86137E-2],"categories":[],"categories_nodes":[],"categories_segments":[],"categories_sizes":[],"default_left":[0,0,0,0,0,0,0,0,0,0,0,0,0,0,0],"id":22,"left_children":[1,3,5,7,9,11,13,-1,-1,-1,-1,-1,-1,-1,-1],"loss_changes":[2.899613E2,5.0761612E1,1.6044711E2,3.3517609E0,5.484027E1,3.9168514E1,1.4676376E1,0E0,0E0,0E0,0E0,0E0,0E0,0E0,0E0],"parents":[2147483647,0,0,1,1,2,2,3,3,4,4,5,5,6,6],"right_children":[2,4,6,8,10,12,14,-1,-1,-1,-1,-1,-1,-1,-1],"split_conditions":[2.5274727E-1,6.027767E-2,3.003576E-1,2.6350876E-3,3.003576E-1,4.0029937E-1,3.6923218E-1,-2.8985772E-2,-5.5401307E-2,-3.305935E-2,8.54301E-3,-1.8802082E-2,8.815648E-3,2.078872E-2,3.86137E-2],"split_indices":[12,12,11,19,11,12,12,0,0,0,0,0,0,0,0],"split_type":[0,0,0,0,0,0,0,0,0,0,0,0,0,0,0],"sum_hessian":[1.6171559E3,5.2316736E2,1.0939885E3,1.820984E2,3.4106897E2,5.0793765E2,5.860509E2,3.0549118E1,1.5154929E2,2.2216711E2,1.1890187E2,2.6532693E2,2.426107E2,1.9878658E2,3.872643E2],"tree_param":{"num_deleted":"0","num_feature":"34","num_nodes":"15","size_leaf_vector":"1"}},{"base_weights":[-1.2077327E-2,-5.790047E-1,2.948942E-1,-8.2080925E-1,-2.0853087E-1,-8.716097E-2,6.148078E-1,-4.4927847E-2,-1.4001444E-2,-4.9655214E-2,8.3101774E-4,-3.3050936E-2,1.5715968E-3,2.0885792E-2,4.0578514E-2],"categories":[],"categories_nodes":[],"categories_segments":[],"categories_sizes":[],"default_left":[0,0,0,0,0,0,0,0,0,0,0,0,0,0,0],"id":23,"left_children":[1,3,5,7,9,11,13,-1,-1,-1,-1,-1,-1,-1,-1],"loss_changes":[2.808696E2,4.946347E1,1.2834071E2,1.2657288E1,4.13598E1,3.3099743E1,2.0210785E1,0E0,0E0,0E0,0E0,0E0,0E0,0E0,0E0],"parents":[2147483647,0,0,1,1,2,2,3,3,4,4,5,5,6,6],"right_children":[2,4,6,8,10,12,14,-1,-1,-1,-1,-1,-1,-1,-1],"split_conditions":[2.5352353E-1,2.9313958E-1,3.003576E-1,2.4669315E-1,5.111795E-2,2.7512002E-1,4.6666488E-1,-4.4927847E-2,-1.4001444E-2,-4.9655214E-2,8.3101774E-4,-3.3050936E-2,1.5715968E-3,2.0885792E-2,4.0578514E-2],"split_indices":[12,11,11,12,12,13,11,0,0,0,0,0,0,0,0],"split_type":[0,0,0,0,0,0,0,0,0,0,0,0,0,0,0],"sum_hessian":[1.6083147E3,5.65469E2,1.0428457E3,3.3904648E2,2.2642253E2,4.7450262E2,5.683431E2,2.936554E2,4.539106E1,4.995759E1,1.7646495E2,8.114339E1,3.9335922E2,2.8959317E2,2.787499E2],"tree_param":{"num_deleted":"0","num_feature":"34","num_nodes":"15","size_leaf_vector":"1"}},{"base_weights":[2.0529784E-3,-5.748599E-1,2.7716303E-1,-1.0002346E0,-3.4498262E-1,-1.0723156E-1,6.0929805E-1,-2.7821004E-2,-5.4206014E-2,-3.233698E-2,8.359622E-3,-2.90261E-2,-4.086894E-4,3.35966E-2,2.933225E-3],"categories":[],"categories_nodes":[],"categories_segments":[],"categories_sizes":[],"default_left":[0,0,0,0,0,0,0,0,0,0,0,0,0,0,0],"id":24,"left_children":[1,3,5,7,9,11,13,-1,-1,-1,-1,-1,-1,-1,-1],"loss_changes":[2.5176695E2,4.7993988E1,1.3807356E2,3.7394104E0,5.2736477E1,2.2810987E1,1.9166748E1,0E0,0E0,0E0,0E0,0E0,0E0,0E0,0E0],"parents":[2147483647,0,0,1,1,2,2,3,3,4,4,5,5,6,6],"right_children":[2,4,6,8,10,12,14,-1,-1,-1,-1,-1,-1,-1,-1],"split_conditions":[2.5274727E-1,6.027767E-2,3.003576E-1,2.6350876E-3,3.003576E-1,2.7512002E-1,1.2694563E-1,-2.7821004E-2,-5.4206014E-2,-3.233698E-2,8.359622E-3,-2.90261E-2,-4.086894E-4,3.35966E-2,2.933225E-3],"split_indices":[12,12,11,19,11,13,31,0,0,0,0,0,0,0,0],"split_type":[0,0,0,0,0,0,0,0,0,0,0,0,0,0,0],"sum_hessian":[1.5841556E3,5.0963138E2,1.0745243E3,1.7491284E2,3.3471854E2,4.9730945E2,5.7721484E2,3.2126728E1,1.4278612E2,2.1152301E2,1.2319554E2,8.2641014E1,4.1466843E2,5.1623676E2,6.0978077E1],"tree_param":{"num_deleted":"0","num_feature":"34","num_nodes":"15","size_leaf_vector":"1"}},{"base_weights":[-5.791461E-3,-4.568621E-1,3.2879233E-1,-9.0097135E-1,-2.2847897E-1,4.9292943E-1,9.829901E-2,-1.7095638E-2,-5.2900385E-2,-3.120274E-2,-3.956698E-3,1.3340078E-2,3.7697997E-2,-1.2524436E-2,1.3193694E-2],"categories":[],"categories_nodes":[],"categories_segments":[],"categories_sizes":[],"default_left":[0,0,0,0,0,0,0,0,0,0,0,0,0,0,0],"id":25,"left_children":[1,3,5,7,9,11,13,-1,-1,-1,-1,-1,-1,-1,-1],"loss_changes":[2.3723483E2,6.6448074E1,3.3389465E1,1.7672134E1,2.5596447E1,2.9451912E1,2.207213E1,0E0,0E0,0E0,0E0,0E0,0E0,0E0,0E0],"parents":[2147483647,0,0,1,1,2,2,3,3,4,4,5,5,6,6],"right_children":[2,4,6,8,10,12,14,-1,-1,-1,-1,-1,-1,-1,-1],"split_conditions":[2.9790884E-1,1.178939E-1,5.402189E-1,2.6350876E-3,2.7512002E-1,3.3918306E-1,7.8287243E-4,-1.7095638E-2,-5.2900385E-2,-3.120274E-2,-3.956698E-3,1.3340078E-2,3.7697997E-2,-1.2524436E-2,1.3193694E-2],"split_indices":[12,12,30,19,13,14,17,0,0,0,0,0,0,0,0],"split_type":[0,0,0,0,0,0,0,0,0,0,0,0,0,0,0],"sum_hessian":[1.5670754E3,6.683263E2,8.987492E2,2.23481E2,4.4484528E2,5.210719E2,3.776773E2,5.179837E1,1.7168263E2,1.1834013E2,3.2650516E2,2.8342184E2,2.3765005E2,1.19301125E2,2.5837616E2],"tree_param":{"num_deleted":"0","num_feature":"34","num_nodes":"15","size_leaf_vector":"1"}},{"base_weights":[5.5359504E-3,-4.376237E-1,3.254107E-1,-9.829E-1,-2.5173554E-1,-2.6724854E-2,6.144405E-1,-2.7016927E-2,-5.3121634E-2,-2.5599087E-2,7.784882E-3,-3.1682134E-2,2.1922195E-3,2.1468962E-2,4.3572098E-2],"categories":[],"categories_nodes":[],"categories_segments":[],"categories_sizes":[],"default_left":[0,0,0,0,0,0,0,0,0,0,0,0,0,0,0],"id":26,"left_children":[1,3,5,7,9,11,13,-1,-1,-1,-1,-1,-1,-1,-1],"loss_changes":[2.2193823E2,6.469911E1,9.334532E1,3.0413666E0,5.276959E1,1.8250463E1,2.182663E1,0E0,0E0,0E0,0E0,0E0,0E0,0E0,0E0],"parents":[2147483647,0,0,1,1,2,2,3,3,4,4,5,5,6,6],"right_children":[2,4,6,8,10,12,14,-1,-1,-1,-1,-1,-1,-1,-1],"split_conditions":[2.8870168E-1,6.027767E-2,3.003576E-1,2.6350876E-3,3.003576E-1,1.0917466E-1,5.36329E-1,-2.7016927E-2,-5.3121634E-2,-2.5599087E-2,7.784882E-3,-3.1682134E-2,2.1922195E-3,2.1468962E-2,4.3572098E-2],"split_indices":[12,12,11,19,11,11,11,0,0,0,0,0,0,0,0],"split_type":[0,0,0,0,0,0,0,0,0,0,0,0,0,0,0],"sum_hessian":[1.5624226E3,6.533703E2,9.090523E2,1.6256232E2,4.9080795E2,4.0904865E2,5.0000366E2,2.905367E1,1.3350864E2,3.0068677E2,1.9012119E2,4.242163E1,3.66627E2,2.9605402E2,2.0394965E2],"tree_param":{"num_deleted":"0","num_feature":"34","num_nodes":"15","size_leaf_vector":"1"}},{"base_weights":[-5.613708E-3,-5.489554E-1,2.4497701E-1,-9.629927E-1,-3.44609E-1,-8.838734E-2,5.451187E-1,-5.268379E-2,-2.5229448E-2,-3.0213157E-2,4.247418E-3,-1.8886082E-2,4.821586E-3,1.8763823E-2,3.8899552E-2],"categories":[],"categories_nodes":[],"categories_segments":[],"categories_sizes":[],"default_left":[0,0,0,0,0,0,0,0,0,0,0,0,0,0,0],"id":27,"left_children":[1,3,5,7,9,11,13,-1,-1,-1,-1,-1,-1,-1,-1],"loss_changes":[2.1271193E2,3.9794846E1,1.0725391E2,4.045944E0,3.801488E1,2.7379208E1,2.0531204E1,0E0,0E0,0E0,0E0,0E0,0E0,0E0,0E0],"parents":[2147483647,0,0,1,1,2,2,3,3,4,4,5,5,6,6],"right_children":[2,4,6,8,10,12,14,-1,-1,-1,-1,-1,-1,-1,-1],"split_conditions":[2.5274727E-1,6.027767E-2,3.003576E-1,3.246903E-1,3.003576E-1,1.9458662E-1,4.8365107E-1,-5.268379E-2,-2.5229448E-2,-3.0213157E-2,4.247418E-3,-1.8886082E-2,4.821586E-3,1.8763823E-2,3.8899552E-2],"split_indices":[12,12,11,11,11,11,11,0,0,0,0,0,0,0,0],"split_type":[0,0,0,0,0,0,0,0,0,0,0,0,0,0,0],"sum_hessian":[1.5560538E3,4.9164883E2,1.064405E3,1.5839578E2,3.3325305E2,5.0338245E2,5.610226E2,1.2824689E2,3.0148891E1,2.0864696E2,1.2460609E2,1.9750754E2,3.058749E2,3.2991837E2,2.3110422E2],"tree_param":{"num_deleted":"0","num_feature":"34","num_nodes":"15","size_leaf_vector":"1"}},{"base_weights":[-1.503173E-2,-3.3685127E-1,3.3137143E-1,-7.675713E-1,-2.0608619E-1,1.6651104E-1,6.7885405E-1,-2.3583231E-2,-4.5686003E-2,-3.5210755E-2,-6.2984386E-3,1.9866636E-2,-2.3087454E-3,3.671257E-2,-5.2584074E-3],"categories":[],"categories_nodes":[],"categories_segments":[],"categories_sizes":[],"default_left":[0,0,0,0,0,0,0,0,0,0,0,0,0,0,0],"id":28,"left_children":[1,3,5,7,9,11,13,-1,-1,-1,-1,-1,-1,-1,-1],"loss_changes":[1.7044672E2,4.3432045E1,4.102675E1,5.6411133E0,2.3481215E1,2.508194E1,1.0940903E1,0E0,0E0,0E0,0E0,0E0,0E0,0E0,0E0],"parents":[2147483647,0,0,1,1,2,2,3,3,4,4,5,5,6,6],"right_children":[2,4,6,8,10,12,14,-1,-1,-1,-1,-1,-1,-1,-1],"split_conditions":[3.003576E-1,2.7512002E-1,5.952972E-1,6.3368276E-4,1.1436953E-1,5.40447E-1,4.579836E-3,-2.3583231E-2,-4.5686003E-2,-3.5210755E-2,-6.2984386E-3,1.9866636E-2,-2.3087454E-3,3.671257E-2,-5.2584074E-3],"split_indices":[11,13,11,27,11,30,27,0,0,0,0,0,0,0,0],"split_type":[0,0,0,0,0,0,0,0,0,0,0,0,0,0,0],"sum_hessian":[1.5249022E3,7.920264E2,7.328758E2,1.804069E2,6.116195E2,5.0101123E2,2.3186456E2,6.470202E1,1.1570489E2,8.085339E1,5.307661E2,2.4168414E2,2.593271E2,2.1787259E2,1.3991973E1],"tree_param":{"num_deleted":"0","num_feature":"34","num_nodes":"15","size_leaf_vector":"1"}},{"base_weights":[4.4931326E-4,-3.939083E-1,2.817099E-1,-9.3003744E-1,-2.2133076E-1,1.0420125E-1,7.0067126E-1,-5.0964367E-2,-2.4553856E-2,-2.281679E-2,6.6035907E-3,-1.2244737E-2,1.1348135E-2,1.3306915E-2,4.0187083E-2],"categories":[],"categories_nodes":[],"categories_segments":[],"categories_sizes":[],"default_left":[0,0,0,0,0,0,0,0,0,0,0,0,0,0,0],"id":29,"left_children":[1,3,5,7,9,11,13,-1,-1,-1,-1,-1,-1,-1,-1],"loss_changes":[1.6855249E2,5.687156E1,6.51687E1,3.4339294E0,4.0459488E1,2.7028399E1,1.0261719E1,0E0,0E0,0E0,0E0,0E0,0E0,0E0,0E0],"parents":[2147483647,0,0,1,1,2,2,3,3,4,4,5,5,6,6],"right_children":[2,4,6,8,10,12,14,-1,-1,-1,-1,-1,-1,-1,-1],"split_conditions":[2.9790884E-1,6.027767E-2,4.389462E-1,3.246903E-1,3.003576E-1,2.0304568E-1,3.6923218E-1,-5.0964367E-2,-2.4553856E-2,-2.281679E-2,6.6035907E-3,-1.2244737E-2,1.1348135E-2,1.3306915E-2,4.0187083E-2],"split_indices":[12,12,11,11,11,11,12,0,0,0,0,0,0,0,0],"split_type":[0,0,0,0,0,0,0,0,0,0,0,0,0,0,0],"sum_hessian":[1.5166343E3,6.295629E2,8.870714E2,1.4975659E2,4.7980637E2,6.2651086E2,2.6056052E2,1.2036221E2,2.9394377E1,2.8952536E2,1.90281E2,1.6036012E2,4.6615076E2,5.3188835E1,2.0737169E2],"tree_param":{"num_deleted":"0","num_feature":"34","num_nodes":"15","size_leaf_vector":"1"}},{"base_weights":[-9.734867E-3,-5.3388864E-1,2.0992707E-1,-8.458518E-1,-2.6725984E-1,-8.9317486E-2,4.8627982E-1,-0E0,-4.4613115E-2,-3.806024E-4,-3.789211E-2,-1.4555948E-2,6.7276703E-3,2.7664801E-2,-2.454669E-3],"categories":[],"categories_nodes":[],"categories_segments":[],"categories_sizes":[],"default_left":[0,0,0,0,0,0,0,0,0,0,0,0,0,0,0],"id":30,"left_children":[1,3,5,7,9,11,13,-1,-1,-1,-1,-1,-1,-1,-1],"loss_changes":[1.7493729E2,3.579895E1,8.8756546E1,7.8979645E0,3.0666824E1,2.3385553E1,2.0542435E1,0E0,0E0,0E0,0E0,0E0,0E0,0E0,0E0],"parents":[2147483647,0,0,1,1,2,2,3,3,4,4,5,5,6,6],"right_children":[2,4,6,8,10,12,14,-1,-1,-1,-1,-1,-1,-1,-1],"split_conditions":[2.4669315E-1,2.4700814E-1,3.003576E-1,4.1121632E-1,3.158151E-1,4.0029937E-1,1.2404253E-1,-0E0,-4.4613115E-2,-3.806024E-4,-3.789211E-2,-1.4555948E-2,6.7276703E-3,2.7664801E-2,-2.454669E-3],"split_indices":[12,11,11,30,13,12,31,0,0,0,0,0,0,0,0],"split_type":[0,0,0,0,0,0,0,0,0,0,0,0,0,0,0],"sum_hessian":[1.5126283E3,4.472054E2,1.0654229E3,2.0235225E2,2.4485315E2,5.104378E2,5.549851E2,1.0785225E1,1.9156702E2,1.6277275E2,8.208041E1,2.7048425E2,2.3995355E2,4.9484317E2,6.014192E1],"tree_param":{"num_deleted":"0","num_feature":"34","num_nodes":"15","size_leaf_vector":"1"}},{"base_weights":[-1.9217547E-2,-8.203998E-1,1.0045331E-1,-2.522834E-1,-4.991695E-2,-9.103355E-2,3.6094168E-1,-3.7620306E-2,5.880889E-4,-1.19383605E-2,6.7713684E-3,2.3362916E-2,-5.7395105E-3],"categories":[],"categories_nodes":[],"categories_segments":[],"categories_sizes":[],"default_left":[0,0,0,0,0,0,0,0,0,0,0,0,0],"id":31,"left_children":[1,3,5,7,-1,9,11,-1,-1,-1,-1,-1,-1],"loss_changes":[1.447488E2,1.808989E1,6.54883E1,7.4715014E0,0E0,2.5332966E1,2.858136E1,0E0,0E0,0E0,0E0,0E0,0E0],"parents":[2147483647,0,0,1,1,2,2,3,3,5,5,6,6],"right_children":[2,4,6,8,-1,10,12,-1,-1,-1,-1,-1,-1],"split_conditions":[1.178939E-1,2.6350876E-3,4.0029937E-1,4.7422282E-2,-4.991695E-2,1.4799013E-3,8.507593E-3,-3.7620306E-2,5.880889E-4,-1.19383605E-2,6.7713684E-3,2.3362916E-2,-5.7395105E-3],"split_indices":[12,19,12,12,0,17,19,0,0,0,0,0,0],"split_type":[0,0,0,0,0,0,0,0,0,0,0,0,0],"sum_hessian":[1.4984879E3,1.943023E2,1.3041857E3,4.8836086E1,1.4546622E2,7.501829E2,5.5400275E2,1.690494E1,3.1931147E1,4.5661407E2,2.9356888E2,4.5455612E2,9.944661E1],"tree_param":{"num_deleted":"0","num_feature":"34","num_nodes":"13","size_leaf_vector":"1"}},{"base_weights":[8.6130705E-3,-4.8767874E-1,2.1209995E-1,-7.5182664E-1,-1.463573E-1,-3.289246E-1,3.3914524E-1,-4.9846623E-2,-2.7972102E-2,7.5995373E-3,-3.707435E-2,-4.4075977E-2,-7.5318464E-3,5.2446383E-3,2.7242526E-2],"categories":[],"categories_nodes":[],"categories_segments":[],"categories_sizes":[],"default_left":[0,0,0,0,0,0,0,0,0,0,0,0,0,0,0],"id":32,"left_children":[1,3,5,7,9,11,13,-1,-1,-1,-1,-1,-1,-1,-1],"loss_changes":[1.4982053E2,3.7719536E1,7.277907E1,8.6783905E0,3.4917362E1,1.8429132E1,4.054264E1,0E0,0E0,0E0,0E0,0E0,0E0,0E0,0E0],"parents":[2147483647,0,0,1,1,2,2,3,3,4,4,5,5,6,6],"right_children":[2,4,6,8,10,12,14,-1,-1,-1,-1,-1,-1,-1,-1],"split_conditions":[2.4669315E-1,2.9313958E-1,1.9458662E-1,1.10481E-1,3.158151E-1,6.533198E-4,4.0029937E-1,-4.9846623E-2,-2.7972102E-2,7.5995373E-3,-3.707435E-2,-4.4075977E-2,-7.5318464E-3,5.2446383E-3,2.7242526E-2],"split_indices":[12,11,11,12,13,17,12,0,0,0,0,0,0,0,0],"split_type":[0,0,0,0,0,0,0,0,0,0,0,0,0,0,0],"sum_hessian":[1.4822152E3,4.2876837E2,1.0534469E3,2.3870215E2,1.9006624E2,1.9823033E2,8.5521655E2,9.90045E1,1.3969765E2,1.2647247E2,6.3593765E1,4.5062725E1,1.531676E2,4.035473E2,4.5166925E2],"tree_param":{"num_deleted":"0","num_feature":"34","num_nodes":"15","size_leaf_vector":"1"}},{"base_weights":[-2.0864569E-2,-3.892681E-1,2.3847984E-1,-7.9368997E-1,-2.1468666E-1,7.1991295E-2,6.5587544E-1,7.1057305E-3,-4.3299798E-2,-3.5615887E-2,-3.3573979E-3,-1.0390023E-2,8.626619E-3,3.5850782E-2,-0E0],"categories":[],"categories_nodes":[],"categories_segments":[],"categories_sizes":[],"default_left":[0,0,0,0,0,0,0,0,0,0,0,0,0,0,0],"id":33,"left_children":[1,3,5,7,9,11,13,-1,-1,-1,-1,-1,-1,-1,-1],"loss_changes":[1.4118637E2,4.1818108E1,5.927424E1,1.3276779E1,3.0806673E1,1.7538507E1,9.945099E0,0E0,0E0,0E0,0E0,0E0,0E0,0E0,0E0],"parents":[2147483647,0,0,1,1,2,2,3,3,4,4,5,5,6,6],"right_children":[2,4,6,8,10,12,14,-1,-1,-1,-1,-1,-1,-1,-1],"split_conditions":[2.9790884E-1,1.178939E-1,4.389462E-1,2.9935615E-2,1.8701844E-1,2.0304568E-1,1.0998667E-1,7.1057305E-3,-4.3299798E-2,-3.5615887E-2,-3.3573979E-3,-1.0390023E-2,8.626619E-3,3.5850782E-2,-0E0],"split_indices":[12,12,11,31,11,11,31,0,0,0,0,0,0,0,0],"split_type":[0,0,0,0,0,0,0,0,0,0,0,0,0,0,0],"sum_hessian":[1.4721984E3,6.0939514E2,8.628032E2,1.798796E2,4.2951556E2,6.201727E2,2.4263046E2,1.1771285E1,1.681083E2,9.492171E1,3.3459387E2,1.6074953E2,4.5942322E2,2.2203394E2,2.059652E1],"tree_param":{"num_deleted":"0","num_feature":"34","num_nodes":"15","size_leaf_vector":"1"}},{"base_weights":[-0E0,-4.7367853E-1,1.8559408E-1,-8.047055E-1,-2.0691927E-1,-7.060795E-2,4.2812815E-1,4.735741E-4,-4.3037783E-2,9.61475E-4,-3.4179688E-2,-2.9967887E-2,4.449569E-5,1.5058835E-2,3.3983238E-2],"categories":[],"categories_nodes":[],"categories_segments":[],"categories_sizes":[],"default_left":[0,0,0,0,0,0,0,0,0,0,0,0,0,0,0],"id":34,"left_children":[1,3,5,7,9,11,13,-1,-1,-1,-1,-1,-1,-1,-1],"loss_changes":[1.2813043E2,3.486927E1,6.55683E1,9.1111145E0,2.5642044E1,1.9864176E1,1.5882179E1,0E0,0E0,0E0,0E0,0E0,0E0,0E0,0E0],"parents":[2147483647,0,0,1,1,2,2,3,3,4,4,5,5,6,6],"right_children":[2,4,6,8,10,12,14,-1,-1,-1,-1,-1,-1,-1,-1],"split_conditions":[2.4458663E-1,2.4700814E-1,3.003576E-1,4.1121632E-1,3.158151E-1,1.0917466E-1,5.763438E-1,4.735741E-4,-4.3037783E-2,9.61475E-4,-3.4179688E-2,-2.9967887E-2,4.449569E-5,1.5058835E-2,3.3983238E-2],"split_indices":[12,11,11,30,13,11,12,0,0,0,0,0,0,0,0],"split_type":[0,0,0,0,0,0,0,0,0,0,0,0,0,0,0],"sum_hessian":[1.4545853E3,4.0810263E2,1.0464827E3,1.7864124E2,2.2946138E2,5.0758618E2,5.3889655E2,1.0463969E1,1.6817726E2,1.5550606E2,7.3955315E1,6.0367767E1,4.472184E2,3.63704E2,1.751925E2],"tree_param":{"num_deleted":"0","num_feature":"34","num_nodes":"15","size_leaf_vector":"1"}},{"base_weights":[-0E0,-2.7554038E-1,2.9777768E-1,-4.4973385E-1,8.843471E-2,-8.3017063E-1,3.6292574E-1,-4.8521474E-2,-1.775249E-2,2.7161757E-2,-3.6151607E-3,-4.7831684E-2,-1.6809292E-2,2.4526646E-2,2.2375535E-3],"categories":[],"categories_nodes":[],"categories_segments":[],"categories_sizes":[],"default_left":[0,0,0,0,0,0,0,0,0,0,0,0,0,0,0],"id":35,"left_children":[1,3,5,7,9,11,13,-1,-1,-1,-1,-1,-1,-1,-1],"loss_changes":[1.2053772E2,4.8911186E1,5.192654E1,2.3584229E1,1.8625277E1,4.538021E-1,2.6564613E1,0E0,0E0,0E0,0E0,0E0,0E0,0E0,0E0],"parents":[2147483647,0,0,1,1,2,2,3,3,4,4,5,5,6,6],"right_children":[2,4,6,8,10,12,14,-1,-1,-1,-1,-1,-1,-1,-1],"split_conditions":[3.003576E-1,4.0029937E-1,5.111795E-2,6.027767E-2,5.7310757E-4,2.2471948E-2,8.9428395E-2,-4.8521474E-2,-1.775249E-2,2.7161757E-2,-3.6151607E-3,-4.7831684E-2,-1.6809292E-2,2.4526646E-2,2.2375535E-3],"split_indices":[11,12,12,12,16,12,31,0,0,0,0,0,0,0,0],"split_type":[0,0,0,0,0,0,0,0,0,0,0,0,0,0,0],"sum_hessian":[1.4652904E3,7.6249133E2,7.027991E2,5.172289E2,2.4526244E2,3.6255203E1,6.665439E2,7.511111E1,4.421178E2,6.442812E1,1.808343E2,2.5762392E1,1.0492811E1,4.7272598E2,1.938179E2],"tree_param":{"num_deleted":"0","num_feature":"34","num_nodes":"15","size_leaf_vector":"1"}},{"base_weights":[-9.336104E-3,-3.2630056E-1,2.3885475E-1,-7.0226485E-1,-1.2521386E-1,-8.346604E-1,2.912776E-1,-4.854412E-2,-2.5306655E-2,-2.3689147E-3,-3.7778098E-2,-4.938707E-2,-1.7744295E-2,2.0256378E-2,1.2407629E-3],"categories":[],"categories_nodes":[],"categories_segments":[],"categories_sizes":[],"default_left":[0,0,0,0,0,0,0,0,0,0,0,0,0,0,0],"id":36,"left_children":[1,3,5,7,9,11,13,-1,-1,-1,-1,-1,-1,-1,-1],"loss_changes":[1.137599E2,4.710264E1,4.54526E1,9.108116E0,1.9670341E1,6.943569E-1,2.3012291E1,0E0,0E0,0E0,0E0,0E0,0E0,0E0,0E0],"parents":[2147483647,0,0,1,1,2,2,3,3,4,4,5,5,6,6],"right_children":[2,4,6,8,10,12,14,-1,-1,-1,-1,-1,-1,-1,-1],"split_conditions":[2.840434E-1,2.4669315E-1,5.111795E-2,1.10481E-1,1.2655923E-1,8.956884E-3,8.9428395E-2,-4.854412E-2,-2.5306655E-2,-2.3689147E-3,-3.7778098E-2,-4.938707E-2,-1.7744295E-2,2.0256378E-2,1.2407629E-3],"split_indices":[11,12,12,12,33,12,31,0,0,0,0,0,0,0,0],"split_type":[0,0,0,0,0,0,0,0,0,0,0,0,0,0,0],"sum_hessian":[1.4409888E3,6.343106E2,8.0667816E2,2.1757014E2,4.1674048E2,3.5280697E1,7.7139746E2,8.6332405E1,1.3123775E2,3.742631E2,4.247737E1,2.3561218E1,1.171948E1,5.3711395E2,2.3428354E2],"tree_param":{"num_deleted":"0","num_feature":"34","num_nodes":"15","size_leaf_vector":"1"}},{"base_weights":[5.077143E-5,1.6465738E-1,-1.6148645E-1,-1.5290348E-1,2.6232392E-1,-6.0435236E-1,-8.790789E-2,-1.2467971E-2,3.576198E-2,9.115904E-2,1.0688903E-2,-3.5912577E-2,1.1801001E-2,-2.104755E-2,-3.88305E-4],"categories":[],"categories_nodes":[],"categories_segments":[],"categories_sizes":[],"default_left":[0,0,0,0,0,0,0,0,0,0,0,0,0,0,0],"id":37,"left_children":[1,3,5,7,9,11,13,-1,-1,-1,-1,-1,-1,-1,-1],"loss_changes":[3.8091434E1,2.2289024E1,2.2659288E1,1.3829154E1,3.8713615E1,1.0420456E1,1.6155657E1,0E0,0E0,0E0,0E0,0E0,0E0,0E0,0E0],"parents":[2147483647,0,0,1,1,2,2,3,3,4,4,5,5,6,6],"right_children":[2,4,6,8,10,12,14,-1,-1,-1,-1,-1,-1,-1,-1],"split_conditions":[5.3942823E-1,2.7512002E-1,2.7512002E-1,3.8770592E-1,2.912874E-1,3.0469373E-3,2.0287122E-1,-1.2467971E-2,3.576198E-2,9.115904E-2,1.0688903E-2,-3.5912577E-2,1.1801001E-2,-2.104755E-2,-3.88305E-4],"split_indices":[30,13,13,20,13,17,14,0,0,0,0,0,0,0,0],"split_type":[0,0,0,0,0,0,0,0,0,0,0,0,0,0,0],"sum_hessian":[1.4284231E3,7.10537E2,7.1788605E2,1.6445258E2,5.460844E2,9.8286415E1,6.195997E2,1.5032768E2,1.4124896E1,1.3645356E1,5.32439E2,8.785909E1,1.0427321E1,1.1610833E2,5.0349133E2],"tree_param":{"num_deleted":"0","num_feature":"34","num_nodes":"15","size_leaf_vector":"1"}},{"base_weights":[-1.1491819E-2,-8.436883E-1,6.444252E-2,-2.579095E-1,-4.8521888E-2,-8.457854E-2,2.7726728E-1,-3.2076366E-2,3.641471E-3,-4.33215E-2,-2.5255408E-3,-4.2518757E-2,1.6191619E-2],"categories":[],"categories_nodes":[],"categories_segments":[],"categories_sizes":[],"default_left":[0,0,0,0,0,0,0,0,0,0,0,0,0],"id":38,"left_children":[1,3,5,7,-1,9,11,-1,-1,-1,-1,-1,-1],"loss_changes":[9.137287E1,7.25296E0,4.187949E1,3.9161458E0,0E0,1.9531397E1,2.8585846E1,0E0,0E0,0E0,0E0,0E0,0E0],"parents":[2147483647,0,0,1,1,2,2,3,3,5,5,6,6],"right_children":[2,4,6,8,-1,10,12,-1,-1,-1,-1,-1,-1],"split_conditions":[6.027767E-2,2.6350876E-3,4.0029937E-1,3.420366E-2,-4.8521888E-2,2.3046702E-4,6.687759E-2,-3.2076366E-2,3.641471E-3,-4.33215E-2,-2.5255408E-3,-4.2518757E-2,1.6191619E-2],"split_indices":[12,19,12,12,0,17,26,0,0,0,0,0,0],"split_type":[0,0,0,0,0,0,0,0,0,0,0,0,0],"sum_hessian":[1.4298976E3,1.1897275E2,1.3109248E3,2.3646847E1,9.5325905E1,7.689843E2,5.4194055E2,1.1477957E1,1.216889E1,2.88421E1,7.401422E2,1.9270763E1,5.2266974E2],"tree_param":{"num_deleted":"0","num_feature":"34","num_nodes":"13","size_leaf_vector":"1"}},{"base_weights":[1.2153626E-2,-8.484744E-1,8.8921E-2,-2.999325E-1,-4.8473205E-2,-1.524095E-1,3.423791E-1,-3.795821E-2,9.784731E-3,-2.8556922E-2,-2.2837527E-3,1.1711611E-2,3.1785503E-2],"categories":[],"categories_nodes":[],"categories_segments":[],"categories_sizes":[],"default_left":[0,0,0,0,0,0,0,0,0,0,0,0,0],"id":39,"left_children":[1,3,5,7,-1,9,11,-1,-1,-1,-1,-1,-1],"loss_changes":[9.2471794E1,5.748207E0,7.958869E1,6.569143E0,0E0,2.898145E1,1.8973938E1,0E0,0E0,0E0,0E0,0E0,0E0],"parents":[2147483647,0,0,1,1,2,2,3,3,5,5,6,6],"right_children":[2,4,6,8,-1,10,12,-1,-1,-1,-1,-1,-1],"split_conditions":[6.027767E-2,2.6350876E-3,3.003576E-1,2.840434E-1,-4.8473205E-2,2.7512002E-1,5.763438E-1,-3.795821E-2,9.784731E-3,-2.8556922E-2,-2.2837527E-3,1.1711611E-2,3.1785503E-2],"split_indices":[12,19,11,11,0,13,12,0,0,0,0,0,0],"split_type":[0,0,0,0,0,0,0,0,0,0,0,0,0],"sum_hessian":[1.4068551E3,1.125002E2,1.2943549E3,2.3080639E1,8.9419556E1,6.6142755E2,6.3292737E2,1.2475475E1,1.0605164E1,1.3068141E2,5.3074615E2,4.675534E2,1.6537395E2],"tree_param":{"num_deleted":"0","num_feature":"34","num_nodes":"13","size_leaf_vector":"1"}},{"base_weights":[2.2039046E-3,-2.80902E-1,2.1265937E-1,-6.824537E-1,-1.6330498E-1,1.08276166E-1,4.5947078E-1,-1.8956838E-2,-4.760699E-2,-3.0651717E-2,-2.1495959E-3,3.0440351E-2,2.4225316E-3,2.5441414E-2,-1.3490009E-2],"categories":[],"categories_nodes":[],"categories_segments":[],"categories_sizes":[],"default_left":[0,0,0,0,0,0,0,0,0,0,0,0,0,0,0],"id":40,"left_children":[1,3,5,7,9,11,13,-1,-1,-1,-1,-1,-1,-1,-1],"loss_changes":[8.459907E1,2.7448982E1,2.0384201E1,8.927856E0,2.4812649E1,1.664311E1,9.130909E0,0E0,0E0,0E0,0E0,0E0,0E0,0E0,0E0],"parents":[2147483647,0,0,1,1,2,2,3,3,4,4,5,5,6,6],"right_children":[2,4,6,8,10,12,14,-1,-1,-1,-1,-1,-1,-1,-1],"split_conditions":[2.7290577E-1,2.7512002E-1,4.8365107E-1,2.7444053E-1,1.2876156E-1,3.029546E-2,4.5798356E-3,-1.8956838E-2,-4.760699E-2,-3.0651717E-2,-2.1495959E-3,3.0440351E-2,2.4225316E-3,2.5441414E-2,-1.3490009E-2],"split_indices":[11,13,11,13,11,31,17,0,0,0,0,0,0,0,0],"split_type":[0,0,0,0,0,0,0,0,0,0,0,0,0,0,0],"sum_hessian":[1.4170356E3,6.0191504E2,8.151206E2,1.3224284E2,4.6967218E2,5.777174E2,2.3740323E2,6.625044E1,6.59924E1,9.564597E1,3.740262E2,5.7935078E1,5.197823E2,2.242047E2,1.3198526E1],"tree_param":{"num_deleted":"0","num_feature":"34","num_nodes":"15","size_leaf_vector":"1"}},{"base_weights":[-8.567295E-3,-3.330999E-1,2.0789483E-1,-9.100714E-1,-2.3076987E-1,9.035898E-2,4.289706E-1,-1.6210442E-2,-4.863248E-2,-2.9470349E-2,-7.1175694E-3,6.4497762E-3,-3.891745E-2,-3.337105E-2,2.5054915E-2],"categories":[],"categories_nodes":[],"categories_segments":[],"categories_sizes":[],"default_left":[0,0,0,0,0,0,0,0,0,0,0,0,0,0,0],"id":41,"left_children":[1,3,5,7,9,11,13,-1,-1,-1,-1,-1,-1,-1,-1],"loss_changes":[9.9173386E1,3.1855385E1,2.133413E1,1.1193619E0,1.4475777E1,1.8230768E1,2.3394485E1,0E0,0E0,0E0,0E0,0E0,0E0,0E0,0E0],"parents":[2147483647,0,0,1,1,2,2,3,3,4,4,5,5,6,6],"right_children":[2,4,6,8,10,12,14,-1,-1,-1,-1,-1,-1,-1,-1],"split_conditions":[2.8870168E-1,5.111795E-2,5.763438E-1,1.8427614E-3,2.0287122E-1,2.9995957E-2,6.7108385E-2,-1.6210442E-2,-4.863248E-2,-2.9470349E-2,-7.1175694E-3,6.4497762E-3,-3.891745E-2,-3.337105E-2,2.5054915E-2],"split_indices":[12,12,12,15,14,15,26,0,0,0,0,0,0,0,0],"split_type":[0,0,0,0,0,0,0,0,0,0,0,0,0,0,0],"sum_hessian":[1.4059867E3,5.639789E2,8.420079E2,8.1107574E1,4.8287128E2,5.5453033E2,2.8747754E2,1.0562475E1,7.05451E1,9.1023964E1,3.9184732E2,5.3364996E2,2.0880398E1,1.5870083E1,2.7160748E2],"tree_param":{"num_deleted":"0","num_feature":"34","num_nodes":"15","size_leaf_vector":"1"}},{"base_weights":[8.660688E-3,-7.0803154E-1,9.8237485E-2,-1.6092485E-1,-4.5865454E-2,-7.112786E-2,2.8786072E-1,-3.4082904E-2,8.1838696E-4,-3.5396393E-2,-7.680311E-4,-8.220366E-3,1.8469311E-2],"categories":[],"categories_nodes":[],"categories_segments":[],"categories_sizes":[],"default_left":[0,0,0,0,0,0,0,0,0,0,0,0,0],"id":42,"left_children":[1,3,5,7,-1,9,11,-1,-1,-1,-1,-1,-1],"loss_changes":[8.925889E1,1.629184E1,4.0254215E1,4.974647E0,0E0,2.257442E1,2.2107811E1,0E0,0E0,0E0,0E0,0E0,0E0],"parents":[2147483647,0,0,1,1,2,2,3,3,5,5,6,6],"right_children":[2,4,6,8,-1,10,12,-1,-1,-1,-1,-1,-1],"split_conditions":[1.178939E-1,2.6049833E-3,3.6923218E-1,3.420366E-2,-4.5865454E-2,2.6673023E-4,2.0287122E-1,-3.4082904E-2,8.1838696E-4,-3.5396393E-2,-7.680311E-4,-8.220366E-3,1.8469311E-2],"split_indices":[12,19,12,12,0,16,14,0,0,0,0,0,0],"split_type":[0,0,0,0,0,0,0,0,0,0,0,0,0],"sum_hessian":[1.3956787E3,1.5228604E2,1.2433927E3,4.4435688E1,1.0785036E2,6.5465344E2,5.887392E2,1.1273777E1,3.316191E1,4.938711E1,6.0526636E2,8.773337E1,5.010058E2],"tree_param":{"num_deleted":"0","num_feature":"34","num_nodes":"13","size_leaf_vector":"1"}},{"base_weights":[-3.9482136E-5,-2.7682352E-1,2.1298158E-1,-9.0565604E-1,-1.8690328E-1,8.788648E-2,5.71281E-1,-1.9189162E-2,-4.7998823E-2,-2.7148724E-2,-4.4235243E-3,-3.7533235E-2,6.969381E-3,-3.096205E-2,3.282024E-2],"categories":[],"categories_nodes":[],"categories_segments":[],"categories_sizes":[],"default_left":[0,0,0,0,0,0,0,0,0,0,0,0,0,0,0],"id":43,"left_children":[1,3,5,7,9,11,13,-1,-1,-1,-1,-1,-1,-1,-1],"loss_changes":[8.211633E1,3.2907486E1,3.4396748E1,1.8959045E-2,1.803139E1,2.489716E1,2.1174065E1,0E0,0E0,0E0,0E0,0E0,0E0,0E0,0E0],"parents":[2147483647,0,0,1,1,2,2,3,3,4,4,5,5,6,6],"right_children":[2,4,6,8,10,12,14,-1,-1,-1,-1,-1,-1,-1,-1],"split_conditions":[2.840434E-1,1.10481E-1,5.763438E-1,3.8467282E-1,2.7512002E-1,5.111795E-2,6.711743E-2,-1.9189162E-2,-4.7998823E-2,-2.7148724E-2,-4.4235243E-3,-3.7533235E-2,6.969381E-3,-3.096205E-2,3.282024E-2],"split_indices":[11,12,12,20,13,12,26,0,0,0,0,0,0,0,0],"split_type":[0,0,0,0,0,0,0,0,0,0,0,0,0,0,0],"sum_hessian":[1.3876442E3,6.0528125E2,7.82363E2,7.206312E1,5.3321814E2,5.838142E2,1.985488E2,1.0049933E1,6.2013187E1,1.1132371E2,4.218944E2,3.108668E1,5.527275E2,1.1627821E1,1.8692097E2],"tree_param":{"num_deleted":"0","num_feature":"34","num_nodes":"15","size_leaf_vector":"1"}},{"base_weights":[1.0683625E-3,-2.5693843E-1,1.8976876E-1,-1.6525619E-1,-6.789144E-1,3.1452835E-1,-7.754319E-2,-2.6727328E-2,-2.590183E-3,-3.7298E-2,-5.412002E-3,2.4902392E-2,6.2591056E-3,-1.9236904E-3,-2.9479925E-2],"categories":[],"categories_nodes":[],"categories_segments":[],"categories_sizes":[],"default_left":[0,0,0,0,0,0,0,0,0,0,0,0,0,0,0],"id":44,"left_children":[1,3,5,7,9,11,13,-1,-1,-1,-1,-1,-1,-1,-1],"loss_changes":[6.766191E1,2.1579914E1,2.7156303E1,1.9699972E1,2.8831482E0,1.8443146E1,4.436791E0,0E0,0E0,0E0,0E0,0E0,0E0,0E0,0E0],"parents":[2147483647,0,0,1,1,2,2,3,3,4,4,5,5,6,6],"right_children":[2,4,6,8,10,12,14,-1,-1,-1,-1,-1,-1,-1,-1],"split_conditions":[2.7290577E-1,3.983052E-1,8.9428395E-2,2.7512002E-1,2.4904214E-1,3.158151E-1,2.750354E-3,-2.6727328E-2,-2.590183E-3,-3.7298E-2,-5.412002E-3,2.4902392E-2,6.2591056E-3,-1.9236904E-3,-2.9479925E-2],"split_indices":[11,20,31,13,11,13,17,0,0,0,0,0,0,0,0],"split_type":[0,0,0,0,0,0,0,0,0,0,0,0,0,0,0],"sum_hessian":[1.3871382E3,5.834181E2,8.0372003E2,4.8351782E2,9.990028E1,5.502811E2,2.5343896E2,1.0981857E2,3.7369925E2,8.7279625E1,1.2620655E1,2.751024E2,2.751787E2,2.3928491E2,1.4154047E1],"tree_param":{"num_deleted":"0","num_feature":"34","num_nodes":"15","size_leaf_vector":"1"}},{"base_weights":[-1.6454358E-2,-1.5215029E-1,2.991712E-1,-4.2064202E-1,-3.85363E-2,-1.1163869E-1,3.8153303E-1,-5.5213086E-3,-2.9931212E-2,8.25243E-3,-9.029005E-3,7.3536956E-3,-4.5615096E-2,4.0767755E-2,1.4172032E-2],"categories":[],"categories_nodes":[],"categories_segments":[],"categories_sizes":[],"default_left":[0,0,0,0,0,0,0,0,0,0,0,0,0,0,0],"id":45,"left_children":[1,3,5,7,9,11,13,-1,-1,-1,-1,-1,-1,-1,-1],"loss_changes":[5.8680233E1,2.8872494E1,1.4254223E1,1.4806221E1,1.9774492E1,1.51447935E1,1.3106209E1,0E0,0E0,0E0,0E0,0E0,0E0,0E0,0E0],"parents":[2147483647,0,0,1,1,2,2,3,3,4,4,5,5,6,6],"right_children":[2,4,6,8,10,12,14,-1,-1,-1,-1,-1,-1,-1,-1],"split_conditions":[3.6658368E-1,1.9458662E-1,4.4177123E-4,4.9765557E-1,5.3942823E-1,6.722808E-2,2.9935615E-2,-5.5213086E-3,-2.9931212E-2,8.25243E-3,-9.029005E-3,7.3536956E-3,-4.5615096E-2,4.0767755E-2,1.4172032E-2],"split_indices":[11,11,17,30,30,26,31,0,0,0,0,0,0,0,0],"split_type":[0,0,0,0,0,0,0,0,0,0,0,0,0,0,0],"sum_hessian":[1.3694089E3,9.606177E2,4.0879123E2,2.8140262E2,6.79215E2,6.612349E1,3.4266776E2,1.0582073E2,1.755819E2,2.7611212E2,4.031029E2,5.026528E1,1.5858208E1,5.8615772E1,2.8405197E2],"tree_param":{"num_deleted":"0","num_feature":"34","num_nodes":"15","size_leaf_vector":"1"}},{"base_weights":[-2.1325227E-2,-6.7005736E-1,4.6688907E-2,-2.2353996E-2,-4.384866E-2,-1.4058127E-1,2.4642403E-1,-3.4853917E-2,2.6386583E-2,-2.8557796E-2,-3.3892838E-3,1.5594936E-2,-7.2246725E-3],"categories":[],"categories_nodes":[],"categories_segments":[],"categories_sizes":[],"default_left":[0,0,0,0,0,0,0,0,0,0,0,0,0],"id":46,"left_children":[1,3,5,7,-1,9,11,-1,-1,-1,-1,-1,-1],"loss_changes":[6.0931896E1,1.6630589E1,4.6418884E1,1.3881461E1,0E0,1.9242142E1,1.5654564E1,0E0,0E0,0E0,0E0,0E0,0E0],"parents":[2147483647,0,0,1,1,2,2,3,3,5,5,6,6],"right_children":[2,4,6,8,-1,10,12,-1,-1,-1,-1,-1,-1],"split_conditions":[1.0213929E-1,2.6350876E-3,3.003576E-1,2.7290577E-1,-4.384866E-2,1.2650791E-1,1.2694563E-1,-3.4853917E-2,2.6386583E-2,-2.8557796E-2,-3.3892838E-3,1.5594936E-2,-7.2246725E-3],"split_indices":[12,19,11,11,0,11,31,0,0,0,0,0,0],"split_type":[0,0,0,0,0,0,0,0,0,0,0,0,0],"sum_hessian":[1.3634108E3,1.2909326E2,1.2343175E3,3.296203E1,9.613124E1,6.347584E2,5.995591E2,1.5380307E1,1.7581722E1,8.782977E1,5.4692865E2,5.160828E2,8.347625E1],"tree_param":{"num_deleted":"0","num_feature":"34","num_nodes":"13","size_leaf_vector":"1"}},{"base_weights":[-1.6583392E-2,-2.95603E-1,1.5492308E-1,-8.560877E-1,-2.0279746E-1,5.3283237E-2,5.6064504E-1,-1.437521E-2,-4.615734E-2,-3.176161E-2,-4.0481286E-3,-7.146273E-4,2.0671383E-2,3.2476828E-2,-0E0],"categories":[],"categories_nodes":[],"categories_segments":[],"categories_sizes":[],"default_left":[0,0,0,0,0,0,0,0,0,0,0,0,0,0,0],"id":47,"left_children":[1,3,5,7,9,11,13,-1,-1,-1,-1,-1,-1,-1,-1],"loss_changes":[6.593815E1,2.5933743E1,3.4355717E1,1.0234337E0,2.3157581E1,1.7044449E1,7.8433266E0,0E0,0E0,0E0,0E0,0E0,0E0,0E0,0E0],"parents":[2147483647,0,0,1,1,2,2,3,3,4,4,5,5,6,6],"right_children":[2,4,6,8,10,12,14,-1,-1,-1,-1,-1,-1,-1,-1],"split_conditions":[2.8134608E-1,5.111795E-2,5.36329E-1,1.2619546E-1,2.0304568E-1,6.1390215E-1,3.8915724E-3,-1.437521E-2,-4.615734E-2,-3.176161E-2,-4.0481286E-3,-7.146273E-4,2.0671383E-2,3.2476828E-2,-0E0],"split_indices":[12,12,11,33,11,12,17,0,0,0,0,0,0,0,0],"split_type":[0,0,0,0,0,0,0,0,0,0,0,0,0,0,0],"sum_hessian":[1.3710582E3,5.2360376E2,8.474544E2,7.0515015E1,4.5308875E2,6.814641E2,1.6599028E2,1.0128017E1,6.0386997E1,9.5937485E1,3.5715128E2,5.730784E2,1.08385735E2,1.4174692E2,2.4243355E1],"tree_param":{"num_deleted":"0","num_feature":"34","num_nodes":"15","size_leaf_vector":"1"}},{"base_weights":[-9.769282E-3,-7.209655E-1,4.4220015E-2,-1.3765226E-1,-4.39311E-2,-3.338468E-1,1.362992E-1,-3.1979863E-2,1.4329021E-2,-3.4617577E-2,-1.076566E-2,-1.2886329E-4,1.7312957E-2],"categories":[],"categories_nodes":[],"categories_segments":[],"categories_sizes":[],"default_left":[0,0,0,0,0,0,0,0,0,0,0,0,0],"id":48,"left_children":[1,3,5,7,-1,9,11,-1,-1,-1,-1,-1,-1],"loss_changes":[5.27619E1,7.6636734E0,4.3750233E1,5.907531E0,0E0,9.21352E0,2.9988708E1,0E0,0E0,0E0,0E0,0E0,0E0],"parents":[2147483647,0,0,1,1,2,2,3,3,5,5,6,6],"right_children":[2,4,6,8,-1,10,12,-1,-1,-1,-1,-1,-1],"split_conditions":[6.027767E-2,2.6350876E-3,1.9458662E-1,2.7290577E-1,-4.39311E-2,2.7512002E-1,4.0029937E-1,-3.1979863E-2,1.4329021E-2,-3.4617577E-2,-1.076566E-2,-1.2886329E-4,1.7312957E-2],"split_indices":[12,19,11,11,0,13,12,0,0,0,0,0,0],"split_type":[0,0,0,0,0,0,0,0,0,0,0,0,0],"sum_hessian":[1.3528302E3,9.501539E1,1.2578148E3,2.2363142E1,7.2652245E1,2.4319044E2,1.0146243E3,1.0858011E1,1.1505132E1,5.5925495E1,1.8726495E2,6.090111E2,4.0561322E2],"tree_param":{"num_deleted":"0","num_feature":"34","num_nodes":"13","size_leaf_vector":"1"}},{"base_weights":[-1.3432109E-2,-2.1104868E-1,1.9315597E-1,-7.8569293E-1,-1.4545411E-1,-3.9371836E-1,2.5803334E-1,-5.1320344E-4,-4.5185305E-2,-2.7490065E-2,-3.6748566E-3,1.18149435E-2,-3.6358003E-2,-5.8966177E-3,1.6363427E-2],"categories":[],"categories_nodes":[],"categories_segments":[],"categories_sizes":[],"default_left":[0,0,0,0,0,0,0,0,0,0,0,0,0,0,0],"id":49,"left_children":[1,3,5,7,9,11,13,-1,-1,-1,-1,-1,-1,-1,-1],"loss_changes":[5.5191532E1,2.4967066E1,2.5133144E1,5.381527E0,1.7513779E1,1.4445045E1,1.5788368E1,0E0,0E0,0E0,0E0,0E0,0E0,0E0,0E0],"parents":[2147483647,0,0,1,1,2,2,3,3,4,4,5,5,6,6],"right_children":[2,4,6,8,10,12,14,-1,-1,-1,-1,-1,-1,-1,-1],"split_conditions":[3.003576E-1,1.10481E-1,1.178939E-1,1.2618963E-1,1.2650791E-1,2.6350876E-3,4.5251692E-4,-5.1320344E-4,-4.5185305E-2,-2.7490065E-2,-3.6748566E-3,1.18149435E-2,-3.6358003E-2,-5.8966177E-3,1.6363427E-2],"split_indices":[11,12,12,33,11,19,17,0,0,0,0,0,0,0,0],"split_type":[0,0,0,0,0,0,0,0,0,0,0,0,0,0,0],"sum_hessian":[1.3474624E3,6.9113696E2,6.563255E2,6.6997856E1,6.241391E2,6.278921E1,5.9353625E2,1.0256045E1,5.674181E1,9.018497E1,5.339541E2,2.089433E1,4.1894882E1,8.983857E1,5.0369772E2],"tree_param":{"num_deleted":"0","num_feature":"34","num_nodes":"15","size_leaf_vector":"1"}},{"base_weights":[2.1454011E-4,-2.410949E-1,1.5878838E-1,-8.484657E-1,-1.5485433E-1,5.51842E-2,4.9100026E-1,-1.759844E-2,-4.5579515E-2,-2.8293172E-2,-2.4297836E-3,-8.1295025E-4,2.1357005E-2,2.8582064E-2,-8.195026E-3],"categories":[],"categories_nodes":[],"categories_segments":[],"categories_sizes":[],"default_left":[0,0,0,0,0,0,0,0,0,0,0,0,0,0,0],"id":50,"left_children":[1,3,5,7,9,11,13,-1,-1,-1,-1,-1,-1,-1,-1],"loss_changes":[5.128688E1,2.648731E1,2.736805E1,1.0028076E-1,1.976338E1,1.7006004E1,1.0662476E1,0E0,0E0,0E0,0E0,0E0,0E0,0E0,0E0],"parents":[2147483647,0,0,1,1,2,2,3,3,4,4,5,5,6,6],"right_children":[2,4,6,8,10,12,14,-1,-1,-1,-1,-1,-1,-1,-1],"split_conditions":[2.9790884E-1,5.111795E-2,4.6666488E-1,1.261997E-1,1.9458662E-1,6.1390215E-1,3.9644527E-1,-1.759844E-2,-4.5579515E-2,-2.8293172E-2,-2.4297836E-3,-8.1295025E-4,2.1357005E-2,2.8582064E-2,-8.195026E-3],"split_indices":[12,12,11,33,11,12,20,0,0,0,0,0,0,0,0],"split_type":[0,0,0,0,0,0,0,0,0,0,0,0,0,0,0],"sum_hessian":[1.3384451E3,5.2784735E2,8.105977E2,6.199064E1,4.6585672E2,6.2197107E2,1.8862665E2,1.0262868E1,5.172777E1,9.1987366E1,3.7386935E2,5.211044E2,1.0086672E2,1.6953252E2,1.9094118E1],"tree_param":{"num_deleted":"0","num_feature":"34","num_nodes":"15","size_leaf_vector":"1"}},{"base_weights":[-1.0974084E-2,-5.9654063E-1,4.9576845E-2,4.5143634E-2,-7.993275E-1,-2.5019333E-1,1.2541981E-1,-1.8115355E-2,3.925335E-2,-4.2554986E-2,-1.0496233E-2,-2.3604935E-2,-0E0,3.7212863E-3,2.6487345E-2],"categories":[],"categories_nodes":[],"categories_segments":[],"categories_sizes":[],"default_left":[0,0,0,0,0,0,0,0,0,0,0,0,0,0,0],"id":51,"left_children":[1,3,5,7,9,11,13,-1,-1,-1,-1,-1,-1,-1,-1],"loss_changes":[4.765047E1,1.722781E1,2.7283546E1,1.0330462E1,1.5436211E0,1.3177951E1,1.9191051E1,0E0,0E0,0E0,0E0,0E0,0E0,0E0,0E0],"parents":[2147483647,0,0,1,1,2,2,3,3,4,4,5,5,6,6],"right_children":[2,4,6,8,10,12,14,-1,-1,-1,-1,-1,-1,-1,-1],"split_conditions":[1.178939E-1,4.369149E-2,2.0304568E-1,3.645993E-1,2.7244936E-3,6.787349E-2,6.1390215E-1,-1.8115355E-2,3.925335E-2,-4.2554986E-2,-1.0496233E-2,-2.3604935E-2,-0E0,3.7212863E-3,2.6487345E-2],"split_indices":[12,31,11,11,17,26,12,0,0,0,0,0,0,0,0],"split_type":[0,0,0,0,0,0,0,0,0,0,0,0,0,0,0],"sum_hessian":[1.3248153E3,1.2404372E2,1.2007716E3,2.8976381E1,9.506734E1,2.3886646E2,9.6190515E2,1.8473082E1,1.0503302E1,8.50151E1,1.0052242E1,1.24775635E2,1.1409081E2,8.584749E2,1.03430214E2],"tree_param":{"num_deleted":"0","num_feature":"34","num_nodes":"15","size_leaf_vector":"1"}},{"base_weights":[8.392242E-4,-5.833164E-1,6.448766E-2,-1.7976235E-1,-4.058554E-2,-7.991686E-2,2.1908236E-1,-2.692694E-2,1.7717844E-2,-2.2811977E-2,2.8040513E-4,-8.354506E-3,1.4335252E-2],"categories":[],"categories_nodes":[],"categories_segments":[],"categories_sizes":[],"default_left":[0,0,0,0,0,0,0,0,0,0,0,0,0],"id":52,"left_children":[1,3,5,7,-1,9,11,-1,-1,-1,-1,-1,-1],"loss_changes":[4.9163357E1,1.0675285E1,2.710764E1,1.0347207E1,0E0,2.0472076E1,1.5532753E1,0E0,0E0,0E0,0E0,0E0,0E0],"parents":[2147483647,0,0,1,1,2,2,3,3,5,5,6,6],"right_children":[2,4,6,8,-1,10,12,-1,-1,-1,-1,-1,-1],"split_conditions":[1.178939E-1,4.085032E-3,3.003576E-1,3.246903E-1,-4.058554E-2,2.7512002E-1,4.4177123E-4,-2.692694E-2,1.7717844E-2,-2.2811977E-2,2.8040513E-4,-8.354506E-3,1.4335252E-2],"split_indices":[12,18,11,11,0,13,17,0,0,0,0,0,0],"split_type":[0,0,0,0,0,0,0,0,0,0,0,0,0],"sum_hessian":[1.3322163E3,1.27745636E2,1.2044706E3,4.904308E1,7.870256E1,6.199151E2,5.8455554E2,3.044702E1,1.8596058E1,1.1535575E2,5.0455936E2,8.446606E1,5.0008948E2],"tree_param":{"num_deleted":"0","num_feature":"34","num_nodes":"13","size_leaf_vector":"1"}},{"base_weights":[-2.2123963E-2,-5.8761793E-1,3.689787E-2,3.6719341E-3,-6.945113E-1,-2.8918132E-1,1.1543927E-1,-3.996685E-2,-5.8061625E-3,-2.3357792E-2,-2.497491E-3,2.991269E-3,2.8674236E-2],"categories":[],"categories_nodes":[],"categories_segments":[],"categories_sizes":[],"default_left":[0,0,0,0,0,0,0,0,0,0,0,0,0],"id":53,"left_children":[1,3,5,-1,7,9,11,-1,-1,-1,-1,-1,-1],"loss_changes":[4.5042007E1,9.738007E0,3.0783035E1,0E0,5.6477814E0,9.323641E0,2.4158165E1,0E0,0E0,0E0,0E0,0E0,0E0],"parents":[2147483647,0,0,1,1,2,2,4,4,5,5,6,6],"right_children":[2,4,6,-1,8,10,12,-1,-1,-1,-1,-1,-1],"split_conditions":[1.178939E-1,3.8438404E-1,1.9458662E-1,3.6719341E-3,4.6666488E-1,2.451981E-1,6.1390215E-1,-3.996685E-2,-5.8061625E-3,-2.3357792E-2,-2.497491E-3,2.991269E-3,2.8674236E-2],"split_indices":[12,20,11,0,11,14,12,0,0,0,0,0,0],"split_type":[0,0,0,0,0,0,0,0,0,0,0,0,0],"sum_hessian":[1.3297135E3,1.2557719E2,1.2041364E3,1.626444E1,1.0931275E2,2.3022375E2,9.739126E2,9.043039E1,1.888236E1,1.2852386E2,1.0169989E2,8.724303E2,1.0148228E2],"tree_param":{"num_deleted":"0","num_feature":"34","num_nodes":"13","size_leaf_vector":"1"}},{"base_weights":[-2.0111173E-2,-3.1288427E-1,8.929269E-2,-8.337953E-1,-2.1207687E-1,-8.426716E-3,3.851274E-1,-4.5767095E-2,-1.507049E-2,-2.0976426E-2,2.2876165E-3,-1.9475933E-2,2.3880901E-3,1.6639375E-3,2.7066668E-2],"categories":[],"categories_nodes":[],"categories_segments":[],"categories_sizes":[],"default_left":[0,0,0,0,0,0,0,0,0,0,0,0,0,0,0],"id":54,"left_children":[1,3,5,7,9,11,13,-1,-1,-1,-1,-1,-1,-1,-1],"loss_changes":[4.25248E1,1.7594593E1,2.8112415E1,6.7821884E-1,1.6851625E1,1.580584E1,1.2621304E1,0E0,0E0,0E0,0E0,0E0,0E0,0E0,0E0],"parents":[2147483647,0,0,1,1,2,2,3,3,4,4,5,5,6,6],"right_children":[2,4,6,8,10,12,14,-1,-1,-1,-1,-1,-1,-1,-1],"split_conditions":[2.5274727E-1,5.111795E-2,4.3169236E-1,2.6382655E-3,3.003576E-1,3.5566554E-4,3.6923218E-1,-4.5767095E-2,-1.507049E-2,-2.0976426E-2,2.2876165E-3,-1.9475933E-2,2.3880901E-3,1.6639375E-3,2.7066668E-2],"split_indices":[12,12,11,17,11,16,12,0,0,0,0,0,0,0,0],"split_type":[0,0,0,0,0,0,0,0,0,0,0,0,0,0,0],"sum_hessian":[1.3169092E3,3.5971228E2,9.571969E2,5.43585E1,3.053538E2,7.184447E2,2.3875217E2,4.426185E1,1.0096654E1,1.7066193E2,1.3469186E2,9.307913E1,6.253656E2,7.612072E1,1.6263145E2],"tree_param":{"num_deleted":"0","num_feature":"34","num_nodes":"15","size_leaf_vector":"1"}},{"base_weights":[6.599053E-3,-2.5974956E-1,1.10809654E-1,-4.5759987E-2,-1.792582E-1,2.6403844E-2,4.0504888E-1,-2.17061E-2,-8.3838E-4,2.6896677E-3,-3.7902247E-2,2.3005784E-2,-2.10207E-2],"categories":[],"categories_nodes":[],"categories_segments":[],"categories_sizes":[],"default_left":[0,0,0,0,0,0,0,0,0,0,0,0,0],"id":55,"left_children":[1,3,5,-1,7,9,11,-1,-1,-1,-1,-1,-1],"loss_changes":[3.6260597E1,1.7898218E1,2.302829E1,0E0,1.320113E1,1.5265693E1,9.880363E0,0E0,0E0,0E0,0E0,0E0,0E0],"parents":[2147483647,0,0,1,1,2,2,4,4,5,5,6,6],"right_children":[2,4,6,-1,8,10,12,-1,-1,-1,-1,-1,-1],"split_conditions":[2.5274727E-1,2.2471948E-2,4.6666488E-1,-4.5759987E-2,2.4837053E-1,7.110584E-2,4.5798356E-3,-2.17061E-2,-8.3838E-4,2.6896677E-3,-3.7902247E-2,2.3005784E-2,-2.10207E-2],"split_indices":[12,12,11,0,11,26,17,0,0,0,0,0,0],"split_type":[0,0,0,0,0,0,0,0,0,0,0,0,0],"sum_hessian":[1.3076812E3,3.6421484E2,9.434664E2,3.6207684E1,3.2800717E2,7.374878E2,2.0597855E2,1.24006874E2,2.0400027E2,7.156385E2,2.1849321E1,1.9506253E2,1.0916023E1],"tree_param":{"num_deleted":"0","num_feature":"34","num_nodes":"13","size_leaf_vector":"1"}},{"base_weights":[-9.577989E-4,-1.7182544E-1,1.8393685E-1,-4.6421543E-2,-1.258855E-1,2.5787318E-1,-1.6914386E-1,-2.735108E-3,-2.265108E-2,7.1168067E-3,2.1401761E-2,-3.7416145E-2,-1.982302E-3],"categories":[],"categories_nodes":[],"categories_segments":[],"categories_sizes":[],"default_left":[0,0,0,0,0,0,0,0,0,0,0,0,0],"id":56,"left_children":[1,3,5,-1,7,9,11,-1,-1,-1,-1,-1,-1],"loss_changes":[4.1268635E1,2.2413542E1,1.6485788E1,0E0,1.449571E1,9.525562E0,7.1810846E0,0E0,0E0,0E0,0E0,0E0,0E0],"parents":[2147483647,0,0,1,1,2,2,4,4,5,5,6,6],"right_children":[2,4,6,-1,8,10,12,-1,-1,-1,-1,-1,-1],"split_conditions":[3.5387284E-1,2.2471948E-2,8.507593E-3,-4.6421543E-2,1.3051273E-1,5.763438E-1,1.2628545E-1,-2.735108E-3,-2.265108E-2,7.1168067E-3,2.1401761E-2,-3.7416145E-2,-1.982302E-3],"split_indices":[12,12,19,0,31,12,33,0,0,0,0,0,0],"split_type":[0,0,0,0,0,0,0,0,0,0,0,0,0],"sum_hessian":[1.3026616E3,6.798959E2,6.227658E2,3.5473873E1,6.44422E2,5.1772406E2,1.0504174E2,5.3368567E2,1.10736336E2,3.140436E2,2.0368048E2,1.6036966E1,8.9004776E1],"tree_param":{"num_deleted":"0","num_feature":"34","num_nodes":"13","size_leaf_vector":"1"}},{"base_weights":[-1.8692534E-2,-1.23779684E-1,2.3508845E-1,-6.53523E-1,-6.3209474E-2,-1.9791228E-1,3.2822993E-1,9.414284E-3,-3.873415E-2,-1.6810632E-3,-3.8137663E-2,8.009391E-3,-2.7891396E-2,1.3400063E-2,5.7849605E-2],"categories":[],"categories_nodes":[],"categories_segments":[],"categories_sizes":[],"default_left":[0,0,0,0,0,0,0,0,0,0,0,0,0,0,0],"id":57,"left_children":[1,3,5,7,9,11,13,-1,-1,-1,-1,-1,-1,-1,-1],"loss_changes":[3.416585E1,2.8446434E1,1.532889E1,1.022216E1,1.6163153E1,9.017067E0,1.3435604E1,0E0,0E0,0E0,0E0,0E0,0E0,0E0,0E0],"parents":[2147483647,0,0,1,1,2,2,3,3,4,4,5,5,6,6],"right_children":[2,4,6,8,10,12,14,-1,-1,-1,-1,-1,-1,-1,-1],"split_conditions":[3.6658368E-1,1.178939E-1,4.4858764E-4,1.2618703E-1,3.882568E-3,6.7144275E-2,3.7998402E-1,9.414284E-3,-3.873415E-2,-1.6810632E-3,-3.8137663E-2,8.009391E-3,-2.7891396E-2,1.3400063E-2,5.7849605E-2],"split_indices":[11,12,17,33,16,26,14,0,0,0,0,0,0,0,0],"split_type":[0,0,0,0,0,0,0,0,0,0,0,0,0,0,0],"sum_hessian":[1.281093E3,9.0946234E2,3.7163068E2,8.961411E1,8.198482E2,6.3489853E1,3.0814084E2,1.0097303E1,7.951681E1,7.899613E2,2.9886923E1,3.0988798E1,3.2501053E1,2.9085675E2,1.7284077E1],"tree_param":{"num_deleted":"0","num_feature":"34","num_nodes":"15","size_leaf_vector":"1"}},{"base_weights":[6.2267017E-3,-5.112367E-1,5.625113E-2,2.2229673E-2,-6.248078E-1,-5.256968E-1,9.054364E-2,-4.2565763E-2,-1.4268222E-2,-8.465163E-3,-3.5212424E-2,1.0277537E-3,1.6699962E-2],"categories":[],"categories_nodes":[],"categories_segments":[],"categories_sizes":[],"default_left":[0,0,0,0,0,0,0,0,0,0,0,0,0],"id":58,"left_children":[1,3,5,-1,7,9,11,-1,-1,-1,-1,-1,-1],"loss_changes":[3.2619728E1,1.2771421E1,2.2941692E1,0E0,6.1325035E0,2.934595E0,1.8460457E1,0E0,0E0,0E0,0E0,0E0,0E0],"parents":[2147483647,0,0,1,1,2,2,4,4,5,5,6,6],"right_children":[2,4,6,-1,8,10,12,-1,-1,-1,-1,-1,-1],"split_conditions":[1.178939E-1,1.2618653E-1,1.1436953E-1,2.2229673E-2,3.089375E-1,1.661134E-1,5.763438E-1,-4.2565763E-2,-1.4268222E-2,-8.465163E-3,-3.5212424E-2,1.0277537E-3,1.6699962E-2],"split_indices":[12,33,11,0,11,14,12,0,0,0,0,0,0],"split_type":[0,0,0,0,0,0,0,0,0,0,0,0,0],"sum_hessian":[1.273494E3,1.0887173E2,1.1646223E3,1.0008055E1,9.886367E1,6.1591248E1,1.103031E3,5.5720158E1,4.3143517E1,2.3727533E1,3.7863712E1,8.616115E2,2.4141954E2],"tree_param":{"num_deleted":"0","num_feature":"34","num_nodes":"13","size_leaf_vector":"1"}},{"base_weights":[-0E0,-1.6676411E-1,1.7276855E-1,-5.486112E-1,-6.8926886E-2,3.413481E-1,-0E0,-1.5840067E-2,-3.5511415E-2,-1.2921881E-3,-5.1948067E-2,-1.45441955E-2,2.2104975E-2,-2.8335035E-2,1.1248008E-2],"categories":[],"categories_nodes":[],"categories_segments":[],"categories_sizes":[],"default_left":[0,0,0,0,0,0,0,0,0,0,0,0,0,0,0],"id":59,"left_children":[1,3,5,7,9,11,13,-1,-1,-1,-1,-1,-1,-1,-1],"loss_changes":[3.720569E1,2.3960226E1,1.8481829E1,3.4766579E0,2.1018097E1,2.0818848E1,4.0269566E1,0E0,0E0,0E0,0E0,0E0,0E0,0E0,0E0],"parents":[2147483647,0,0,1,1,2,2,3,3,4,4,5,5,6,6],"right_children":[2,4,6,8,10,12,14,-1,-1,-1,-1,-1,-1,-1,-1],"split_conditions":[3.003576E-1,2.7512002E-1,3.158151E-1,2.7444053E-1,3.46676E-3,4.4177123E-4,3.5044435E-1,-1.5840067E-2,-3.5511415E-2,-1.2921881E-3,-5.1948067E-2,-1.45441955E-2,2.2104975E-2,-2.8335035E-2,1.1248008E-2],"split_indices":[11,13,13,13,17,17,12,0,0,0,0,0,0,0,0],"split_type":[0,0,0,0,0,0,0,0,0,0,0,0,0,0,0],"sum_hessian":[1.2875367E3,6.579075E2,6.2962933E2,1.3022375E2,5.276837E2,3.1842383E2,3.112055E2,5.846886E1,7.17549E1,5.081968E2,1.9486885E1,4.188549E1,2.7653833E2,8.78858E1,2.2331969E2],"tree_param":{"num_deleted":"0","num_feature":"34","num_nodes":"15","size_leaf_vector":"1"}},{"base_weights":[-2.444739E-2,-3.3020052E-1,4.822081E-2,-1.561147E-1,-6.268395E-1,-6.462162E-2,2.850456E-1,-3.0875606E-2,-5.1585783E-5,-4.5101743E-2,-2.1090938E-2,4.7355522E-3,-1.7958725E-2,2.5229147E-2,-1.2799413E-3],"categories":[],"categories_nodes":[],"categories_segments":[],"categories_sizes":[],"default_left":[0,0,0,0,0,0,0,0,0,0,0,0,0,0,0],"id":60,"left_children":[1,3,5,7,9,11,13,-1,-1,-1,-1,-1,-1,-1,-1],"loss_changes":[2.9084038E1,1.2011635E1,2.8192347E1,1.1065771E1,3.0067139E0,3.3501762E1,2.3730995E1,0E0,0E0,0E0,0E0,0E0,0E0,0E0,0E0],"parents":[2147483647,0,0,1,1,2,2,3,3,4,4,5,5,6,6],"right_children":[2,4,6,8,10,12,14,-1,-1,-1,-1,-1,-1,-1,-1],"split_conditions":[1.9458662E-1,8.058537E-2,5.1800525E-1,2.4669315E-1,7.207261E-3,3.158151E-1,5.8622295E-3,-3.0875606E-2,-5.1585783E-5,-4.5101743E-2,-2.1090938E-2,4.7355522E-3,-1.7958725E-2,2.5229147E-2,-1.2799413E-3],"split_indices":[11,31,12,12,19,13,18,0,0,0,0,0,0,0,0],"split_type":[0,0,0,0,0,0,0,0,0,0,0,0,0,0,0],"sum_hessian":[1.2928748E3,2.4955203E2,1.0433226E3,1.6130948E2,8.824257E1,7.047532E2,3.3856952E2,3.7456985E1,1.23852486E2,3.2688473E1,5.5554092E1,4.5603293E2,2.4872023E2,1.995294E2,1.3904013E2],"tree_param":{"num_deleted":"0","num_feature":"34","num_nodes":"15","size_leaf_vector":"1"}},{"base_weights":[-0E0,-5.0484794E-1,4.6744578E-2,-3.579555E-2,-7.2166353E-1,-2.4791604E-1,1.1459163E-1,-2.3581585E-2,2.3108333E-2,-3.9209247E-2,-1.2867795E-2,-3.7395123E-3,-2.8133808E-2,1.2800594E-2,-6.714332E-4],"categories":[],"categories_nodes":[],"categories_segments":[],"categories_sizes":[],"default_left":[0,0,0,0,0,0,0,0,0,0,0,0,0,0,0],"id":61,"left_children":[1,3,5,7,9,11,13,-1,-1,-1,-1,-1,-1,-1,-1],"loss_changes":[3.0437378E1,1.0311018E1,2.3423542E1,8.720397E0,6.8024826E-1,1.1151162E1,1.7622765E1,0E0,0E0,0E0,0E0,0E0,0E0,0E0,0E0],"parents":[2147483647,0,0,1,1,2,2,3,3,4,4,5,5,6,6],"right_children":[2,4,6,8,10,12,14,-1,-1,-1,-1,-1,-1,-1,-1],"split_conditions":[1.178939E-1,2.6350876E-3,1.8701844E-1,3.246903E-1,2.750354E-3,8.058537E-2,5.38397E-1,-2.3581585E-2,2.3108333E-2,-3.9209247E-2,-1.2867795E-2,-3.7395123E-3,-2.8133808E-2,1.2800594E-2,-6.714332E-4],"split_indices":[12,19,11,11,17,31,30,0,0,0,0,0,0,0,0],"split_type":[0,0,0,0,0,0,0,0,0,0,0,0,0,0,0],"sum_hessian":[1.280826E3,1.0734488E2,1.1734812E3,3.6128326E1,7.121655E1,2.1587709E2,9.576041E2,2.0393272E1,1.5735056E1,5.9652428E1,1.1564121E1,1.4291988E2,7.2957214E1,4.577514E2,4.9985275E2],"tree_param":{"num_deleted":"0","num_feature":"34","num_nodes":"15","size_leaf_vector":"1"}},{"base_weights":[3.0306734E-3,-4.3585982E-2,2.6200132E-2,-1.1635378E-2,3.7872213E-1,-1.5259727E-2,2.296173E-3,8.413419E-4,3.2457124E-2],"categories":[],"categories_nodes":[],"categories_segments":[],"categories_sizes":[],"default_left":[0,0,0,0,0,0,0,0,0],"id":62,"left_children":[1,-1,3,5,7,-1,-1,-1,-1],"loss_changes":[2.5008955E1,0E0,1.6962921E1,1.9253208E1,1.1364916E1,0E0,0E0,0E0,0E0],"parents":[2147483647,0,0,2,2,3,3,4,4],"right_children":[2,-1,4,6,8,-1,-1,-1,-1],"split_conditions":[2.2471948E-2,-4.3585982E-2,6.1390215E-1,2.0287122E-1,1.0949183E-3,-1.5259727E-2,2.296173E-3,8.413419E-4,3.2457124E-2],"split_indices":[12,0,12,14,22,0,0,0,0],"split_type":[0,0,0,0,0,0,0,0,0],"sum_hessian":[1.2714084E3,2.9803047E1,1.2416055E3,1.1204473E3,1.2115817E2,1.8511261E2,9.353346E2,5.4305363E1,6.685281E1],"tree_param":{"num_deleted":"0","num_feature":"34","num_nodes":"9","size_leaf_vector":"1"}},{"base_weights":[-3.1329861E-3,-2.6880962E-1,8.4457174E-2,-1.8081081E-1,-4.4749152E-2,1.8435607E-2,3.2852727E-1,-2.3952583E-2,-0E0,-1.6665583E-2,3.5081252E-3,-1.8867357E-2,2.1436853E-2],"categories":[],"categories_nodes":[],"categories_segments":[],"categories_sizes":[],"default_left":[0,0,0,0,0,0,0,0,0,0,0,0,0],"id":63,"left_children":[1,3,5,7,-1,9,11,-1,-1,-1,-1,-1,-1],"loss_changes":[2.9659275E1,1.6061087E1,1.4945713E1,1.55454645E1,0E0,1.3482719E1,1.444253E1,0E0,0E0,0E0,0E0,0E0,0E0],"parents":[2147483647,0,0,1,1,2,2,3,3,5,5,6,6],"right_children":[2,4,6,8,-1,10,12,-1,-1,-1,-1,-1,-1],"split_conditions":[2.4458663E-1,3.8073394E-1,4.6666488E-1,2.4904214E-1,-4.4749152E-2,3.5566554E-4,3.0267304E-1,-2.3952583E-2,-0E0,-1.6665583E-2,3.5081252E-3,-1.8867357E-2,2.1436853E-2],"split_indices":[12,13,11,11,0,16,12,0,0,0,0,0,0],"split_type":[0,0,0,0,0,0,0,0,0,0,0,0,0],"sum_hessian":[1.2626619E3,3.148734E2,9.477885E2,2.797355E2,3.513791E1,7.509129E2,1.9687556E2,1.0587425E2,1.7386125E2,9.239558E1,6.5851733E2,2.2546759E1,1.743288E2],"tree_param":{"num_deleted":"0","num_feature":"34","num_nodes":"13","size_leaf_vector":"1"}},{"base_weights":[1.2483989E-2,-3.7143253E-2,4.086086E-2,-7.9801515E-2,1.7006458E-1,-2.055326E-2,-3.7812537E-5,1.2820299E-2,-3.248545E-3],"categories":[],"categories_nodes":[],"categories_segments":[],"categories_sizes":[],"default_left":[0,0,0,0,0,0,0,0,0],"id":64,"left_children":[1,-1,3,5,7,-1,-1,-1,-1],"loss_changes":[2.662397E1,0E0,1.9279812E1,1.616098E1,1.23643E1,0E0,0E0,0E0,0E0],"parents":[2147483647,0,0,2,2,3,3,4,4],"right_children":[2,-1,4,6,8,-1,-1,-1,-1],"split_conditions":[5.111795E-2,-3.7143253E-2,3.003576E-1,2.7512002E-1,6.0036683E-1,-2.055326E-2,-3.7812537E-5,1.2820299E-2,-3.248545E-3],"split_indices":[12,0,11,13,30,0,0,0,0],"split_type":[0,0,0,0,0,0,0,0,0],"sum_hessian":[1.2700305E3,4.288555E1,1.227145E3,6.3094E2,5.96205E2,1.1749385E2,5.134461E2,4.390067E2,1.5719833E2],"tree_param":{"num_deleted":"0","num_feature":"34","num_nodes":"9","size_leaf_vector":"1"}},{"base_weights":[-9.603806E-3,1.1355124E-1,-1.2892623E-1,-1.6817312E-1,1.950201E-1,-6.8520285E-2,-5.016404E-1,-3.0516058E-2,-0E0,3.7829287E-2,6.5143704E-3,5.20129E-4,-1.9193424E-2,-3.2282546E-2,6.6870535E-3],"categories":[],"categories_nodes":[],"categories_segments":[],"categories_sizes":[],"default_left":[0,0,0,0,0,0,0,0,0,0,0,0,0,0,0],"id":65,"left_children":[1,3,5,7,9,11,13,-1,-1,-1,-1,-1,-1,-1,-1],"loss_changes":[1.8707867E1,1.4366471E1,1.3997767E1,1.004106E1,1.6586176E1,1.4420036E1,8.740746E0,0E0,0E0,0E0,0E0,0E0,0E0,0E0,0E0],"parents":[2147483647,0,0,1,1,2,2,3,3,4,4,5,5,6,6],"right_children":[2,4,6,8,10,12,14,-1,-1,-1,-1,-1,-1,-1,-1],"split_conditions":[5.38397E-1,1.9458662E-1,9.1846013E-1,2.7512002E-1,2.2223681E-1,1.7559808E-2,1.1112734E-2,-3.0516058E-2,-0E0,3.7829287E-2,6.5143704E-3,5.20129E-4,-1.9193424E-2,-3.2282546E-2,6.6870535E-3],"split_indices":[30,11,24,13,11,19,19,0,0,0,0,0,0,0,0],"split_type":[0,0,0,0,0,0,0,0,0,0,0,0,0,0,0],"sum_hessian":[1.2680244E3,6.199145E2,6.481099E2,1.3582388E2,4.840906E2,5.620663E2,8.604364E1,3.542101E1,1.0040287E2,4.6228413E1,4.3786218E2,4.485657E2,1.1350058E2,7.14018E1,1.4641841E1],"tree_param":{"num_deleted":"0","num_feature":"34","num_nodes":"15","size_leaf_vector":"1"}},{"base_weights":[-9.1053E-3,-1.2978409E-1,1.5187646E-1,-1.1410545E-2,-4.1303784E-1,2.3933436E-1,-2.4500132E-1,-3.7688718E-3,5.5625033E-2,1.1322934E-2,-2.326165E-2,5.7103653E-3,2.661745E-2,-3.738554E-2,-4.7133965E-3],"categories":[],"categories_nodes":[],"categories_segments":[],"categories_sizes":[],"default_left":[0,0,0,0,0,0,0,0,0,0,0,0,0,0,0],"id":66,"left_children":[1,3,5,7,9,11,13,-1,-1,-1,-1,-1,-1,-1,-1],"loss_changes":[2.4611296E1,2.3981945E1,1.8847385E1,3.6379078E1,7.5282364E0,1.5561499E1,6.321244E0,0E0,0E0,0E0,0E0,0E0,0E0,0E0,0E0],"parents":[2147483647,0,0,1,1,2,2,3,3,4,4,5,5,6,6],"right_children":[2,4,6,8,10,12,14,-1,-1,-1,-1,-1,-1,-1,-1],"split_conditions":[3.6923218E-1,3.158151E-1,3.9530894E-1,2.938494E-1,1.2618358E-1,4.3735144E-1,2.4837053E-1,-3.7688718E-3,5.5625033E-2,1.1322934E-2,-2.326165E-2,5.7103653E-3,2.661745E-2,-3.738554E-2,-4.7133965E-3],"split_indices":[12,13,20,13,33,11,11,0,0,0,0,0,0,0,0],"split_type":[0,0,0,0,0,0,0,0,0,0,0,0,0,0,0],"sum_hessian":[1.2639626E3,7.261838E2,5.377789E2,5.161093E2,2.1007443E2,4.4338583E2,9.439306E1,4.9092422E2,2.518511E1,1.39026375E1,1.961718E2,3.1504388E2,1.2834193E2,1.8416655E1,7.59764E1],"tree_param":{"num_deleted":"0","num_feature":"34","num_nodes":"15","size_leaf_vector":"1"}},{"base_weights":[-6.8026506E-3,-4.629547E-1,3.4161124E-2,-0E0,-3.47636E-2,-3.7602204E-1,6.676249E-2,-2.0785393E-2,2.102997E-2,-3.0490005E-2,-4.305629E-3,2.0535693E-3,2.4433278E-2],"categories":[],"categories_nodes":[],"categories_segments":[],"categories_sizes":[],"default_left":[0,0,0,0,0,0,0,0,0,0,0,0,0],"id":67,"left_children":[1,3,5,7,-1,9,11,-1,-1,-1,-1,-1,-1],"loss_changes":[2.3943462E1,1.0882971E1,1.5159882E1,7.0475793E0,0E0,4.820176E0,1.1050692E1,0E0,0E0,0E0,0E0,0E0,0E0],"parents":[2147483647,0,0,1,1,2,2,3,3,5,5,6,6],"right_children":[2,4,6,8,-1,10,12,-1,-1,-1,-1,-1,-1],"split_conditions":[1.178939E-1,2.6350876E-3,1.2650791E-1,3.246903E-1,-3.47636E-2,3.358814E-1,6.631792E-1,-2.0785393E-2,2.102997E-2,-3.0490005E-2,-4.305629E-3,2.0535693E-3,2.4433278E-2],"split_indices":[12,19,11,11,0,12,11,0,0,0,0,0,0],"split_type":[0,0,0,0,0,0,0,0,0,0,0,0,0],"sum_hessian":[1.2547379E3,1.0370786E2,1.15103E3,3.632681E1,6.738106E1,8.093849E1,1.0700916E3,1.9117447E1,1.7209362E1,4.1675716E1,3.926277E1,1.01297314E3,5.7118454E1],"tree_param":{"num_deleted":"0","num_feature":"34","num_nodes":"13","size_leaf_vector":"1"}},{"base_weights":[-1.497656E-2,-4.475232E-2,4.7942363E-3,-4.5836806E-2,2.8502244E-1,-1.44709665E-2,3.5946924E-4,1.7149402E-2,-2.4691971E-2],"categories":[],"categories_nodes":[],"categories_segments":[],"categories_sizes":[],"default_left":[0,0,0,0,0,0,0,0,0],"id":68,"left_children":[1,-1,3,5,7,-1,-1,-1,-1],"loss_changes":[2.2814629E1,0E0,1.7755955E1,1.3755572E1,8.853767E0,0E0,0E0,0E0,0E0],"parents":[2147483647,0,0,2,2,3,3,4,4],"right_children":[2,-1,4,6,8,-1,-1,-1,-1],"split_conditions":[2.2471948E-2,-4.475232E-2,4.8365107E-1,2.7512002E-1,4.5798356E-3,-1.44709665E-2,3.5946924E-4,1.7149402E-2,-2.4691971E-2],"split_indices":[12,0,11,13,17,0,0,0,0],"split_type":[0,0,0,0,0,0,0,0,0],"sum_hessian":[1.2575516E3,2.679613E1,1.2307555E3,1.0408087E3,1.8994678E2,1.8784795E2,8.5296075E2,1.7902621E2,1.0920564E1],"tree_param":{"num_deleted":"0","num_feature":"34","num_nodes":"9","size_leaf_vector":"1"}},{"base_weights":[2.8557028E-3,1.1009759E-1,-9.822255E-2,6.489306E-2,5.0596964E-1,-3.2522872E-1,-1.2088935E-2,-2.9856025E-3,1.0396357E-2,4.0184338E-2,-6.9992603E-3,-1.0874602E-2,-4.714712E-2,1.705019E-2,-5.874814E-3],"categories":[],"categories_nodes":[],"categories_segments":[],"categories_sizes":[],"default_left":[0,0,0,0,0,0,0,0,0,0,0,0,0,0,0],"id":69,"left_children":[1,3,5,7,9,11,13,-1,-1,-1,-1,-1,-1,-1,-1],"loss_changes":[1.3627193E1,1.0355009E1,1.2204518E1,1.0079465E1,1.2501973E1,9.96093E0,1.7370163E1,0E0,0E0,0E0,0E0,0E0,0E0,0E0,0E0],"parents":[2147483647,0,0,1,1,2,2,3,3,4,4,5,5,6,6],"right_children":[2,4,6,8,10,12,14,-1,-1,-1,-1,-1,-1,-1,-1],"split_conditions":[5.38397E-1,3.7952638E-3,5.2251443E-3,1.305092E-3,3.1007403E-3,8.836582E-3,5.9821564E-1,-2.9856025E-3,1.0396357E-2,4.0184338E-2,-6.9992603E-3,-1.0874602E-2,-4.714712E-2,1.705019E-2,-5.874814E-3],"split_indices":[30,32,19,16,19,15,30,0,0,0,0,0,0,0,0],"split_type":[0,0,0,0,0,0,0,0,0,0,0,0,0,0,0],"sum_hessian":[1.2520511E3,6.1221686E2,6.398343E2,5.5382916E2,5.838769E1,1.712751E2,4.6855917E2,2.928685E2,2.609607E2,4.069248E1,1.7695213E1,1.4952007E2,2.1755032E1,1.04511185E2,3.6404797E2],"tree_param":{"num_deleted":"0","num_feature":"34","num_nodes":"15","size_leaf_vector":"1"}},{"base_weights":[-2.7415436E-2,-5.712109E-1,5.605501E-4,-3.9286982E-2,-1.8873325E-1,-1.1219756E-1,1.2165132E-1,-2.3298502E-2,1.8753164E-3,-3.5998088E-3,-4.1560277E-2,-1.1990294E-2,9.464706E-3],"categories":[],"categories_nodes":[],"categories_segments":[],"categories_sizes":[],"default_left":[0,0,0,0,0,0,0,0,0,0,0,0,0],"id":70,"left_children":[1,3,5,-1,7,9,11,-1,-1,-1,-1,-1,-1],"loss_changes":[1.9715277E1,3.924633E0,1.638133E1,0E0,2.1607568E0,1.6800581E1,1.42808485E1,0E0,0E0,0E0,0E0,0E0,0E0],"parents":[2147483647,0,0,1,1,2,2,4,4,5,5,6,6],"right_children":[2,4,6,-1,8,10,12,-1,-1,-1,-1,-1,-1],"split_conditions":[6.027767E-2,3.089375E-1,3.003576E-1,-3.9286982E-2,4.7422282E-2,3.7764453E-3,4.5251692E-4,-2.3298502E-2,1.8753164E-3,-3.5998088E-3,-4.1560277E-2,-1.1990294E-2,9.464706E-3],"split_indices":[12,11,11,0,12,16,17,0,0,0,0,0,0],"split_type":[0,0,0,0,0,0,0,0,0,0,0,0,0],"sum_hessian":[1.2563788E3,6.132164E1,1.1950571E3,3.6260303E1,2.5061337E1,6.146199E2,5.804372E2,1.2295324E1,1.2766013E1,5.854757E2,2.9144218E1,8.8366516E1,4.920707E2],"tree_param":{"num_deleted":"0","num_feature":"34","num_nodes":"13","size_leaf_vector":"1"}},{"base_weights":[-1.9249342E-2,-7.204092E-1,3.5314194E-3,-4.29772E-2,-8.157803E-3,-3.8360137E-1,3.213882E-2,-4.149374E-2,-1.0868895E-2,-1.02294935E-5,1.6734382E-2],"categories":[],"categories_nodes":[],"categories_segments":[],"categories_sizes":[],"default_left":[0,0,0,0,0,0,0,0,0,0,0],"id":71,"left_children":[1,3,5,-1,-1,7,9,-1,-1,-1,-1],"loss_changes":[2.0608154E1,1.8422031E0,1.3034165E1,0E0,0E0,4.583132E0,1.1369281E1,0E0,0E0,0E0,0E0],"parents":[2147483647,0,0,1,1,2,2,5,5,6,6],"right_children":[2,4,6,-1,-1,8,10,-1,-1,-1,-1],"split_conditions":[5.111795E-2,6.915164E-2,1.2650791E-1,-4.29772E-2,-8.157803E-3,2.5274727E-1,6.1390215E-1,-4.149374E-2,-1.0868895E-2,-1.02294935E-5,1.6734382E-2],"split_indices":[12,26,11,0,0,12,12,0,0,0,0],"split_type":[0,0,0,0,0,0,0,0,0,0,0],"sum_hessian":[1.2429912E3,3.856812E1,1.2044231E3,2.8558256E1,1.0009861E1,7.876416E1,1.1256589E3,1.7575846E1,6.1188316E1,1.015764E3,1.0989495E2],"tree_param":{"num_deleted":"0","num_feature":"34","num_nodes":"11","size_leaf_vector":"1"}},{"base_weights":[-0E0,-5.4729277E-1,2.859915E-2,-0E0,-7.4230325E-1,1.3105379E-1,-7.95914E-2,-1.6512178E-2,-4.313509E-2,2.8681909E-3,6.259414E-2,-1.691863E-2,5.0320633E-4],"categories":[],"categories_nodes":[],"categories_segments":[],"categories_sizes":[],"default_left":[0,0,0,0,0,0,0,0,0,0,0,0,0],"id":72,"left_children":[1,3,5,-1,7,9,11,-1,-1,-1,-1,-1,-1],"loss_changes":[1.9233915E1,6.668993E0,1.3333689E1,0E0,4.8135376E-1,4.9753605E1,1.3754572E1,0E0,0E0,0E0,0E0,0E0,0E0],"parents":[2147483647,0,0,1,1,2,2,4,4,5,5,6,6],"right_children":[2,4,6,-1,8,10,12,-1,-1,-1,-1,-1,-1],"split_conditions":[6.027767E-2,2.6350876E-3,3.158151E-1,-0E0,6.2458594E-3,2.938494E-1,3.5044435E-1,-1.6512178E-2,-4.313509E-2,2.8681909E-3,6.259414E-2,-1.691863E-2,5.0320633E-4],"split_indices":[12,19,13,0,15,13,12,0,0,0,0,0,0],"split_type":[0,0,0,0,0,0,0,0,0,0,0,0,0],"sum_hessian":[1.2533217E3,5.8946896E1,1.1943748E3,1.5713248E1,4.323365E1,6.179792E2,5.763956E2,1.3346688E1,2.9886961E1,5.8266583E2,3.5313366E1,1.4975351E2,4.2664212E2],"tree_param":{"num_deleted":"0","num_feature":"34","num_nodes":"13","size_leaf_vector":"1"}},{"base_weights":[1.5192836E-2,-4.1999172E-2,3.383263E-2,-2.0283942E-1,9.012394E-2,1.9434327E-3,-1.8979896E-2,4.8245183E-5,1.1776907E-2],"categories":[],"categories_nodes":[],"categories_segments":[],"categories_sizes":[],"default_left":[0,0,0,0,0,0,0,0,0],"id":73,"left_children":[1,-1,3,5,7,-1,-1,-1,-1],"loss_changes":[1.8927069E1,0E0,1.6059017E1,1.0192943E1,1.251027E1,0E0,0E0,0E0,0E0],"parents":[2147483647,0,0,2,2,3,3,4,4],"right_children":[2,-1,4,6,8,-1,-1,-1,-1],"split_conditions":[2.2471948E-2,-4.1999172E-2,1.9458662E-1,4.9765557E-1,4.0029937E-1,1.9434327E-3,-1.8979896E-2,4.8245183E-5,1.1776907E-2],"split_indices":[12,0,11,30,12,0,0,0,0],"split_type":[0,0,0,0,0,0,0,0,0],"sum_hessian":[1.2323789E3,2.3264168E1,1.2091147E3,2.2791095E2,9.8120386E2,9.453795E1,1.33373E2,6.137688E2,3.6743506E2],"tree_param":{"num_deleted":"0","num_feature":"34","num_nodes":"9","size_leaf_vector":"1"}},{"base_weights":[-1.7753394E-2,-6.845283E-1,1.8619784E-3,-4.1362014E-2,-1.5023835E-2,-1.08506896E-1,1.2119215E-1,-2.0416148E-2,-1.8101303E-3,1.3195983E-2,-1.336611E-3],"categories":[],"categories_nodes":[],"categories_segments":[],"categories_sizes":[],"default_left":[0,0,0,0,0,0,0,0,0,0,0],"id":74,"left_children":[1,3,5,-1,-1,7,9,-1,-1,-1,-1],"loss_changes":[1.694882E1,4.0297318E-1,1.5955181E1,0E0,0E0,1.3064231E1,1.2622786E1,0E0,0E0,0E0,0E0],"parents":[2147483647,0,0,1,1,2,2,5,5,6,6],"right_children":[2,4,6,-1,-1,8,10,-1,-1,-1,-1],"split_conditions":[5.111795E-2,2.2471948E-2,3.003576E-1,-4.1362014E-2,-1.5023835E-2,2.7512002E-1,3.158151E-1,-2.0416148E-2,-1.8101303E-3,1.3195983E-2,-1.336611E-3],"split_indices":[12,12,11,0,0,13,13,0,0,0,0],"split_type":[0,0,0,0,0,0,0,0,0,0,0],"sum_hessian":[1.2414863E3,3.4998154E1,1.2064882E3,2.1935305E1,1.3062848E1,6.225193E2,5.839689E2,1.1646442E2,5.0605484E2,2.998475E2,2.8412137E2],"tree_param":{"num_deleted":"0","num_feature":"34","num_nodes":"11","size_leaf_vector":"1"}},{"base_weights":[-0E0,-2.3579518E-1,5.566496E-2,-4.060909E-1,-4.4021454E-2,1.8385376E-1,-6.080088E-2,-4.321586E-2,-1.0826012E-2,-2.1985127E-2,9.947896E-3,4.0745653E-2,5.505839E-3,-2.1017905E-4,-2.4249632E-2],"categories":[],"categories_nodes":[],"categories_segments":[],"categories_sizes":[],"default_left":[0,0,0,0,0,0,0,0,0,0,0,0,0,0,0],"id":75,"left_children":[1,3,5,7,9,11,13,-1,-1,-1,-1,-1,-1,-1,-1],"loss_changes":[1.630576E1,7.264782E0,1.5132856E1,9.203108E0,1.1628684E1,2.1345999E1,1.207265E1,0E0,0E0,0E0,0E0,0E0,0E0,0E0,0E0],"parents":[2147483647,0,0,1,1,2,2,3,3,4,4,5,5,6,6],"right_children":[2,4,6,8,10,12,14,-1,-1,-1,-1,-1,-1,-1,-1],"split_conditions":[1.9458662E-1,6.787349E-2,4.1904473E-3,9.978502E-2,2.6927036E-1,2.2223681E-1,9.200832E-1,-4.321586E-2,-1.0826012E-2,-2.1985127E-2,9.947896E-3,4.0745653E-2,5.505839E-3,-2.1017905E-4,-2.4249632E-2],"split_indices":[11,26,18,25,12,11,21,0,0,0,0,0,0,0,0],"split_type":[0,0,0,0,0,0,0,0,0,0,0,0,0,0,0],"sum_hessian":[1.2371995E3,2.3532591E2,1.0018735E3,1.2069699E2,1.14628914E2,4.8047018E2,5.214033E2,3.169375E1,8.900324E1,4.4560482E1,7.0068436E1,4.6745525E1,4.3372467E2,4.6388696E2,5.7516342E1],"tree_param":{"num_deleted":"0","num_feature":"34","num_nodes":"15","size_leaf_vector":"1"}},{"base_weights":[6.9639337E-4,-4.465756E-1,2.6993126E-2,-1.0758446E-1,-5.901469E-1,1.3120134E-1,-8.2997695E-2,1.5311368E-2,-3.0567998E-2,-1.4413978E-2,-4.6305466E-2,3.0755165E-3,6.331118E-2,7.543511E-3,-8.330071E-3],"categories":[],"categories_nodes":[],"categories_segments":[],"categories_sizes":[],"default_left":[0,0,0,0,0,0,0,0,0,0,0,0,0,0,0],"id":76,"left_children":[1,3,5,7,9,11,13,-1,-1,-1,-1,-1,-1,-1,-1],"loss_changes":[1.4039406E1,2.394826E0,1.3401575E1,5.724363E0,2.709074E0,4.619075E1,1.1062474E1,0E0,0E0,0E0,0E0,0E0,0E0,0E0,0E0],"parents":[2147483647,0,0,1,1,2,2,3,3,4,4,5,5,6,6],"right_children":[2,4,6,8,10,12,14,-1,-1,-1,-1,-1,-1,-1,-1],"split_conditions":[1.1436953E-1,1.661134E-1,3.158151E-1,1.55875E-3,3.8624546E-1,2.938494E-1,4.8808038E-1,1.5311368E-2,-3.0567998E-2,-1.4413978E-2,-4.6305466E-2,3.0755165E-3,6.331118E-2,7.543511E-3,-8.330071E-3],"split_indices":[11,14,13,22,20,13,30,0,0,0,0,0,0,0,0],"split_type":[0,0,0,0,0,0,0,0,0,0,0,0,0,0,0],"sum_hessian":[1.2252687E3,6.41512E1,1.1611174E3,2.2199368E1,4.195183E1,6.007022E2,5.604152E2,1.1528706E1,1.0670663E1,2.5622389E1,1.6329443E1,5.687689E2,3.1933313E1,1.4400742E2,4.164078E2],"tree_param":{"num_deleted":"0","num_feature":"34","num_nodes":"15","size_leaf_vector":"1"}},{"base_weights":[-2.7568357E-3,-1.0127282E-1,1.2617807E-1,-3.262518E-3,-3.3681118E-1,4.135302E-1,4.8843015E-2,-2.919294E-3,4.6584766E-2,-1.3437043E-2,-6.276913E-2,9.150478E-3,4.4156156E-2,5.878287E-3,-2.14748E-2],"categories":[],"categories_nodes":[],"categories_segments":[],"categories_sizes":[],"default_left":[0,0,0,0,0,0,0,0,0,0,0,0,0,0,0],"id":77,"left_children":[1,3,5,7,9,11,13,-1,-1,-1,-1,-1,-1,-1,-1],"loss_changes":[1.5701317E1,1.5960315E1,1.1316683E1,2.5195276E1,1.0587416E1,1.0494183E1,1.3730173E1,0E0,0E0,0E0,0E0,0E0,0E0,0E0,0E0],"parents":[2147483647,0,0,1,1,2,2,3,3,4,4,5,5,6,6],"right_children":[2,4,6,8,10,12,14,-1,-1,-1,-1,-1,-1,-1,-1],"split_conditions":[3.6923218E-1,3.158151E-1,1.4748906E-3,2.938494E-1,4.1098245E-3,1.7057802E-3,9.200832E-1,-2.919294E-3,4.6584766E-2,-1.3437043E-2,-6.276913E-2,9.150478E-3,4.4156156E-2,5.878287E-3,-2.14748E-2],"split_indices":[12,13,19,13,16,18,24,0,0,0,0,0,0,0,0],"split_type":[0,0,0,0,0,0,0,0,0,0,0,0,0,0,0],"sum_hessian":[1.2340636E3,7.0419244E2,5.2987115E2,5.0170172E2,2.0249074E2,1.0777792E2,4.2209326E2,4.765499E2,2.5151817E1,1.9194081E2,1.0549915E1,7.558339E1,3.2194534E1,3.7221616E2,4.9877098E1],"tree_param":{"num_deleted":"0","num_feature":"34","num_nodes":"15","size_leaf_vector":"1"}},{"base_weights":[-0E0,-3.900413E-2,1.40953595E-2,-7.1785584E-2,1.328345E-1,2.8129152E-3,-9.954215E-3,8.8671995E-3,-3.5852294E-2],"categories":[],"categories_nodes":[],"categories_segments":[],"categories_sizes":[],"default_left":[0,0,0,0,0,0,0,0,0],"id":78,"left_children":[1,-1,3,5,7,-1,-1,-1,-1],"loss_changes":[1.3973147E1,0E0,1.2350745E1,1.1488361E1,1.9030506E1,0E0,0E0,0E0,0E0],"parents":[2147483647,0,0,2,2,3,3,4,4],"right_children":[2,-1,4,6,8,-1,-1,-1,-1],"split_conditions":[2.2471948E-2,-3.900413E-2,1.305092E-3,5.22376E-4,3.2411356E-2,2.8129152E-3,-9.954215E-3,8.8671995E-3,-3.5852294E-2],"split_indices":[12,0,16,16,32,0,0,0,0],"split_type":[0,0,0,0,0,0,0,0,0],"sum_hessian":[1.221875E3,2.056931E1,1.2013057E3,6.926784E2,5.0862732E2,3.419686E2,3.507098E2,4.8593735E2,2.2689964E1],"tree_param":{"num_deleted":"0","num_feature":"34","num_nodes":"9","size_leaf_vector":"1"}},{"base_weights":[-1.3731107E-2,-4.9107292E-1,1.14109125E-2,-6.098253E-1,-3.648707E-3,-5.9640276E-1,3.096544E-2,-7.534671E-3,-3.6499605E-2,-3.8393013E-2,-1.4783974E-2,3.7577676E-4,2.175779E-2],"categories":[],"categories_nodes":[],"categories_segments":[],"categories_sizes":[],"default_left":[0,0,0,0,0,0,0,0,0,0,0,0,0],"id":79,"left_children":[1,3,5,7,-1,9,11,-1,-1,-1,-1,-1,-1],"loss_changes":[1.5324034E1,2.3997211E0,1.3426062E1,1.5262299E0,0E0,2.921734E-1,1.03652725E1,0E0,0E0,0E0,0E0,0E0,0E0],"parents":[2147483647,0,0,1,1,2,2,3,3,5,5,6,6],"right_children":[2,4,6,8,-1,10,12,-1,-1,-1,-1,-1,-1],"split_conditions":[1.1436953E-1,1E0,5.839416E-2,1.4748906E-3,-3.648707E-3,2.2471948E-2,6.61679E-1,-7.534671E-3,-3.6499605E-2,-3.8393013E-2,-1.4783974E-2,3.7577676E-4,2.175779E-2],"split_indices":[11,4,12,19,0,12,11,0,0,0,0,0,0],"split_type":[0,0,0,0,0,0,0,0,0,0,0,0,0],"sum_hessian":[1.2339594E3,6.187735E1,1.172082E3,4.5613E1,1.6264349E1,3.309988E1,1.138982E3,1.212309E1,3.348991E1,1.698424E1,1.611564E1,1.0807892E3,5.8192863E1],"tree_param":{"num_deleted":"0","num_feature":"34","num_nodes":"13","size_leaf_vector":"1"}},{"base_weights":[1.2016698E-2,1.2626076E-1,-9.439125E-2,7.702532E-2,5.767356E-1,-3.4134603E-1,-1.2330594E-2,-4.4243834E-3,1.1321755E-2,-0E0,4.1667435E-2,-2.4245866E-2,3.8347424E-3,-2.506408E-2,1.8985032E-3],"categories":[],"categories_nodes":[],"categories_segments":[],"categories_sizes":[],"default_left":[0,0,0,0,0,0,0,0,0,0,0,0,0,0,0],"id":80,"left_children":[1,3,5,7,9,11,13,-1,-1,-1,-1,-1,-1,-1,-1],"loss_changes":[1.4989626E1,1.251644E1,1.2459E1,1.3611433E1,7.794655E0,9.766291E0,1.23063545E1,0E0,0E0,0E0,0E0,0E0,0E0,0E0,0E0],"parents":[2147483647,0,0,1,1,2,2,3,3,4,4,5,5,6,6],"right_children":[2,4,6,8,10,12,14,-1,-1,-1,-1,-1,-1,-1,-1],